tree
version=v4
num_class=1
num_tree_per_iteration=1
label_index=0
max_feature_idx=17
objective=binary sigmoid:1
feature_names=jaccard_full jaccard_title jaccard_desc word_overlap_full word_overlap_title word_overlap_ratio_full word_overlap_ratio_title offering_len wanted_len len_ratio_full offering_title_len wanted_title_len offering_word_count wanted_word_count category_match subcategory_match tfidf_cosine_sim tfidf_cosine_sim_title
feature_infos=[0:1] [0:1] [0:1] [0:30] [0:16] [0:1] [0:1] [19:4957] [29:376] [0.0091352009744214372:1] [5:1580] [10:214] [3:776] [4:59] [0:1] [0:1] [0:1.0000000000000002] [0:1.0000000000000004]
tree_sizes=5720 6310 6443 6708 6329 6750 6716 5314 6643 5676 6130 5918 6543 6432 6546 5899 6577 5201 6724 5193 6731 5804 5723 6727 6705 6621 6744 6743 6719 6744 5780 6685 6592 6738 6046 5919 6143 6468 5821 6498 5912 5612 5585 5890 6149 5372 5483 6738 5095 4747 6740 5485 4876 4214 5045 6566 6442 4327 4887 4799 3917 4470 4691 4108 4233 4274 4118 4541 4796 4112 3518 4125 4061 3945 5629 3929 3260 3743 4033 3304 4492 3064 3429 5963 4266 4061 3432 4604 5710 3215 3544 4792 3692 3727 4441 4171 4336 3849 3615 3618 3952 3123 2704 5635 2587 2069 1616 1638 3335 2063 2364 3320 3545 1534 4811 2275 1618 3756 1646 2052 1637 2052 3524 2151 3458 3069 3919 2149 3725 2151 1630 6002 2968 2747 5831 1950 1304 2712 5319 3285 2370 1430 2144 3975 4594 1415 1306 1519 3005 4279 5954 2469 6758 4165 3689 5196 2606 4982 3436 5945 1733 5152 1742 3072 4073 3191 1622 3405 2763

Tree=0
num_leaves=58
num_cat=0
split_feature=16 15 17 17 16 16 0 7 16 17 16 15 12 17 0 9 13 7 17 16 3 7 17 10 17 17 7 10 17 16 10 1 10 0 1 2 7 12 3 3 16 12 2 0 16 1 16 17 17 17 7 7 17 16 7 1 7
split_gain=9055.54 660.734 324.799 251.015 137.648 66.1291 193.231 38.9699 39.1252 44.8159 31.8268 30.9223 30.2216 23.148 22.7581 18.9416 18.4206 17.5555 13.9857 17.6516 20.8005 15.472 13.5513 15.3002 10.3515 11.625 10.1114 9.75989 7.87089 6.96574 6.63547 6.48231 6.43744 5.20323 4.88556 4.45116 5.01007 4.23898 4.02135 3.32888 2.96379 4.01444 2.90635 2.27664 2.16546 1.6444 1.19343 1.96625 1.12327 0.927417 0.789748 0.562139 0.299594 0.175173 0.13928 0.125134 0.102018
threshold=0.11504639002076476 1.0000000180025095e-35 0.29990364894842381 0.31888447377762213 0.15918111917537317 1.0000000180025095e-35 0.0093025268258913139 537.50000000000011 0.029752959235408549 0.029644092906584121 0.26601744419794116 1.0000000180025095e-35 26.500000000000004 0.40465879814550021 0.064665471923536458 0.38177376059055451 13.500000000000002 484.50000000000006 0.43420406601039346 0.30985380767221021 4.5000000000000009 386.50000000000006 0.039405054750781369 34.500000000000007 0.2524390558757395 0.045981832079513237 512.50000000000011 67.500000000000014 0.15816007510143806 0.087089261093835871 68.500000000000014 0.032795698924731186 66.500000000000014 0.10930934873949581 0.18019480519480521 0.0062696540880503157 344.50000000000006 73.500000000000014 5.5000000000000009 2.5000000000000004 0.36240157438411941 68.500000000000014 0.025062814070351765 0.05721726190476191 0.17505577826192173 0.16172624237140368 0.15918111917537317 0.52290235685833619 0.51251470347094796 0.45969906692163059 1752.5000000000002 236.50000000000003 0.8148271456782562 0.29324497539271405 85.500000000000014 0.19399641577060936 130.50000000000003
decision_type=2 2 2 2 2 2 2 2 2 2 2 2 2 2 2 2 2 2 2 2 2 2 2 2 2 2 2 2 2 2 2 2 2 2 2 2 2 2 2 2 2 2 2 2 2 2 2 2 2 2 2 2 2 2 2 2 2
left_child=1 -1 5 4 11 6 16 29 50 -10 12 -2 28 38 15 -8 27 22 19 20 21 30 23 -13 25 -19 -18 -3 -6 34 -5 -31 -24 40 -7 37 -37 -14 43 48 41 -12 45 -4 -23 -22 47 -41 55 -15 -9 -44 53 -50 -21 -20 -35
right_child=3 2 13 18 10 7 14 8 9 -11 33 17 35 49 -16 -17 26 24 39 54 42 44 32 -25 -26 -27 -28 -29 -30 31 -32 -33 -34 56 -36 36 -38 -39 -40 46 -42 -43 51 -45 -46 -47 -48 -49 52 -51 -52 -53 -54 -55 -56 -57 -58
leaf_value=-0.099850901880534443 -0.098012333280676073 -0.02471455843696365 0.028567239272965492 -0.0040185335814921872 0.012101660739440004 -0.088774925999633381 0.026811430354847027 -0.097420637421479106 0.002450108853484814 -0.058847799214608656 0.032553387597581362 -0.028741202265683725 0.054386796676134157 0.067782925547475323 0.090221995165229052 -0.030830141807644512 -0.073492794338191378 0.048027335992409034 0.07911670939473342 0.077586847116102767 0.087390768684730225 0.048175082410220414 -0.057599040467337562 0.063507902765378751 0.089024737662516951 -0.0082180465532191785 -0.046793242308425062 -0.085214500796349402 -0.07039986006288261 -0.032584809019147787 0.054150429494480394 -0.076896764586759231 -0.0024119530256487623 0.080375333186154571 -0.040028090655149083 0.038145967224917844 0.06750214800998626 0.0080454119163981715 0.051879995788634559 0.061246925978583201 0.091979748985483945 0.074513871689757358 0.067782925547475323 -0.018491584256446258 0.093364967759762885 0.047593434515268235 0.098667202968547252 0.093752775611414152 0.094342311802834075 0.098309904072804932 -0.075440244342575402 0.09405776143769698 0.099380095178148942 0.081714693860043999 0.099395837287034564 0.058403555697867295 0.097367282316561318
leaf_weight=1121.75 7.9999999999999991 50 5.0000000000000018 16.750000000000004 5.7499999999999982 127.5 73.75 26.5 51.75 69.75 9.0000000000000018 9.2500000000000018 12.250000000000002 4.9999999999999991 11.499999999999998 17.5 127.5 16.5 7.7499999999999982 4.9999999999999991 4.9999999999999991 4.9999999999999991 18.000000000000004 8.4999999999999982 5.7499999999999991 20.25 52 7.7499999999999991 5.5 13.499999999999998 6.7499999999999991 24.5 7.7499999999999991 8.2499999999999982 5.9999999999999991 19.5 78.5 8.7499999999999982 8.4999999999999982 7.9999999999999991 13.999999999999998 20 4.9999999999999991 5 9.4999999999999982 8.7499999999999982 997.5 25.75 19.75 35.5 10.749999999999998 43.5 19.75 36 87.75 6.25 59.5
leaf_count=4487 32 200 20 67 23 510 295 106 207 279 36 37 49 20 46 70 510 66 31 20 20 20 72 34 23 81 208 31 22 54 27 98 31 33 24 78 314 35 34 32 56 80 20 20 38 35 3990 103 79 142 43 174 79 144 351 25 238
internal_value=0.000142867 -0.0757624 -0.0386934 0.0853588 0.0466741 -0.0486 -0.0330751 -0.0645532 -0.046575 -0.0327179 0.0666849 -0.00459328 0.0497713 0.0736552 0.0241513 0.0156803 -0.0578799 0.0041427 0.0952151 0.0824506 0.0675996 0.0380623 -0.0180982 0.0152618 0.0270137 0.0169607 -0.0658164 -0.0330535 -0.028058 -0.0811288 0.0126358 -0.0614128 -0.0412569 0.0864686 -0.0866532 0.0571886 0.0617565 0.0354438 0.0267487 0.0974012 0.0719455 0.0618196 0.0854605 0.00459124 0.0785604 0.0629517 0.0982789 0.0863987 0.0871335 0.0948402 -0.0914305 0.0915966 0.0900167 0.0864383 0.0983587 0.0707032 0.0954931
internal_weight=3499.75 1851 729.25 1648.75 335 670.25 340 330.25 158.75 121.5 241 94 130.25 59 102.75 91.25 237.25 86 1313.75 193 100.25 38 43.5 17.75 42.5 36.75 179.5 57.75 11.25 171.5 23.5 38 25.75 110.75 133.5 119 98 21 18.5 1120.75 43 29 62.25 10 14.5 13.75 1031.25 33.75 89.5 40.5 37.25 48.5 75.5 55.75 92.75 14 67.75
internal_count=13999 7404 2917 6595 1340 2681 1360 1321 635 486 964 376 521 236 411 365 949 344 5255 772 401 152 174 71 170 147 718 231 45 686 94 152 103 443 534 476 392 84 74 4483 172 116 249 40 58 55 4125 135 358 162 149 194 302 223 371 56 271
is_linear=0
shrinkage=1


Tree=1
num_leaves=59
num_cat=0
split_feature=17 5 15 17 15 0 5 5 17 5 2 10 7 0 0 5 1 5 9 0 7 17 5 6 2 8 12 17 13 0 12 0 5 17 17 0 12 8 8 0 17 9 12 6 12 2 5 0 6 17 12 10 6 5 17 2 17 10
split_gain=7605.14 1536.21 281.953 175.546 160.386 131.624 105.609 67.1551 23.0931 27.5925 20.0328 15.3777 13.0107 12.2127 10.9993 18.5751 15.2207 10.7801 15.8338 10.1209 9.9757 9.51553 9.412 9.03759 8.60213 8.57774 6.98116 12.9027 7.10349 6.16848 6.82927 6.12151 4.9423 4.62294 7.74066 3.68576 3.31899 3.83333 3.3149 3.22706 3.86359 2.8695 2.59944 2.40261 1.86118 3.9741 1.724 4.43442 5.21078 2.97614 1.03684 0.973256 1.77247 0.588178 0.488561 0.212518 0.0381409 0.0148958
threshold=0.21406702770099759 0.52506265664160412 1.0000000180025095e-35 0.31888447377762213 1.0000000180025095e-35 0.1213537241574625 0.35147058823529415 0.43095238095238103 0.43420406601039346 0.33854166666666669 0.0065147271029623978 8.5000000000000018 507.50000000000006 0.04532614278376991 0.10930934873949581 0.77097902097902116 0.14039408866995076 0.8047619047619049 0.11638688494265632 0.092903380484296347 792.50000000000011 0.049705996519080142 0.27429467084639503 0.21825396825396828 0.024347899728997296 107.50000000000001 45.500000000000007 0.16743233730097826 23.500000000000004 0.12922201138519926 54.500000000000007 0.045548849490758207 0.98387096774193561 0.28580998711394517 0.2317035862258057 0.17047223663726002 75.500000000000014 78.500000000000014 102.50000000000001 0.13060200668896324 0.054952970616677026 0.16218227155727158 80.500000000000014 0.15192307692307697 33.500000000000007 0.090454545454545468 0.30151515151515157 0.066496598639455798 0.44097222222222227 0.45969906692163059 21.500000000000004 45.500000000000007 0.23904761904761906 0.41042780748663105 0.52633748506888078 0.062746062992125998 0.53730381630710167 122.50000000000001
decision_type=2 2 2 2 2 2 2 2 2 2 2 2 2 2 2 2 2 2 2 2 2 2 2 2 2 2 2 2 2 2 2 2 2 2 2 2 2 2 2 2 2 2 2 2 2 2 2 2 2 2 2 2 2 2 2 2 2 2
left_child=1 2 -1 6 -3 7 10 11 9 13 19 -4 -13 -5 15 16 41 18 21 43 24 -6 33 -24 -9 -18 35 28 -28 30 -15 32 -11 34 -12 -7 57 -38 -22 40 -20 -8 -39 -2 45 -33 47 48 56 -49 -31 52 -16 -46 55 -48 -10 -19
right_child=3 4 5 8 17 26 14 20 46 31 22 12 -14 29 51 -17 25 36 39 -21 38 -23 23 -25 -26 -27 27 -29 -30 50 -32 44 -34 -35 -36 -37 37 42 -40 -41 -42 -43 -44 -45 53 -47 54 49 -50 -51 -52 -53 -54 -55 -56 -57 -58 -59
leaf_value=-0.095254475501164768 -0.045037886650125245 -0.095150853659980564 0.0015174582488506894 -0.026716414971654653 0.05250922413695485 0.031760743155757838 0.084083748627771376 0.038267233899507556 0.065058628848165281 0.016581585515162745 0.022636736270399291 -0.071747618843464631 -0.055671481122321897 0.013134420619325746 0.087618934098710355 0.096025335342680637 -0.055625863541820475 0.095227792306913861 0.073278695294381122 -0.0055461780173501358 -0.06044596841364587 -0.029278159134453807 0.086794815777544138 0.0042096409741606512 -0.025317579775541617 0.020725919503448608 -0.031908518723165212 0.083999699074997214 0.028100836061601672 0.057465115448207031 0.059959398894070939 0.038737310357740029 0.083697395932607666 0.02008360113661118 -0.048820019243901697 0.078559991047762956 0.041186602725713617 0.044246123347759604 -0.015684071144607788 0.094948528488811468 0.031320618387826564 0.039476954220721616 0.082571234738442884 -0.091307272967522751 0.076705322720647492 0.09369266432579644 0.086808586802044604 0.052046040147881258 0.017887821263920842 0.09181254992285226 0.089415651350870332 0.090795276281363191 0.04755822886135902 0.091615827968417052 0.094194480243794884 0.094296865592771811 0.086887945115537574 0.075655551504918386
leaf_weight=1111.233157530427 4.9925895631313351 14.716266840696333 8.4925972968339902 5.4976846724748603 6.7450247853994352 9.7382443845272082 7.7418796718120637 17.240172252058986 5.2400741577148455 6.2438529133796674 5.2436770349741044 343.80634148418903 209.08078072965145 15.240598589181902 7.7349501699209195 14.731431007385252 5.7440373748540869 48.446838140487671 21.987466931343082 7.4936421215534201 5.4961731284856823 7.2437718510627747 5.4923047125339499 8.4906633496284467 7.4942835420370093 9.7401022464036924 10.987933635711675 4.9926936924457541 8.7374620735645276 6.4934130609035483 16.724128648638725 6.9907254576683027 5.2394776493310928 6.9928798228502265 12.484307080507277 8.4884876161813718 7.9953895211219779 5.745880350470542 18.48657800257206 11.977736577391623 8.2447218149900419 8.4924892932176572 70.707976162433624 10.486677289009092 16.219293922185898 7.4833507984876633 110.00581875443459 5.9865090101957312 5.2384752929210654 116.47370231151581 9.234404653310774 31.689755529165268 6.2404640465974808 114.25451621413231 843.47573678195477 62.100532919168472 7.482507050037384 5.2441014945507041
leaf_count=4456 20 59 34 22 27 39 31 69 21 25 21 1377 837 61 31 59 23 194 88 30 22 29 22 34 30 39 44 20 35 26 67 28 21 28 50 34 32 23 74 48 33 34 283 42 65 30 441 24 21 467 37 127 25 458 3382 249 30 21
internal_value=1.62779e-06 -0.0647365 -0.0799236 0.0840817 0.0633855 -0.053818 0.0333579 -0.0597763 0.0897875 0.0742889 -0.0171994 -0.0646628 -0.0656884 0.0428641 0.0672453 0.0496593 0.0277337 0.0754591 0.0565036 -0.0540944 -0.00334898 0.00989544 0.00465404 0.0373889 0.018776 -0.00745209 0.0306543 0.0129875 -0.00506721 0.0510286 0.0379 0.0849079 0.0480942 -0.0137365 -0.0273953 0.0541385 0.083088 0.0762725 -0.0263583 0.071772 0.062142 0.0614398 0.0798178 -0.0770896 0.0877547 0.0679412 0.0925869 0.0864029 0.0615545 0.0899534 0.0769868 0.0848766 0.0705508 0.0898607 0.0934285 0.0895928 0.0788645 0.0935533
internal_weight=3492.75 1973.33 1764.27 1519.42 209.055 653.042 153.792 610.097 1365.62 209.621 61.6767 561.38 552.887 53.1902 92.1151 46.4499 31.7185 194.339 56.1987 22.9729 48.7172 13.9888 38.7038 13.983 24.7345 15.4841 42.9448 24.7181 19.7254 47.6925 31.9647 156.431 11.4833 24.7209 17.728 18.2267 138.14 84.4492 23.9828 42.2099 30.2322 16.2344 76.4539 15.4793 144.948 14.4741 1156 140.421 17.9611 122.46 15.7278 45.6652 13.9754 130.474 1015.58 172.106 12.7226 53.6909
internal_count=13999 7908 7071 6091 837 2615 616 2443 5475 840 247 2248 2214 213 369 186 127 778 225 92 195 56 155 56 99 62 172 99 79 191 128 627 46 99 71 73 553 338 96 169 121 65 306 62 581 58 4635 563 72 491 63 183 56 523 4072 690 51 215
is_linear=0
shrinkage=0.05


Tree=2
num_leaves=60
num_cat=0
split_feature=16 5 17 17 5 15 15 16 5 3 5 17 17 5 3 16 13 15 16 10 17 5 5 16 2 6 6 9 6 5 3 6 10 3 10 5 9 5 5 9 10 16 2 6 16 17 9 9 9 9 9 10 9 5 9 10 13 16 10
split_gain=7464.07 723.969 256.462 253.225 150.651 120.349 110.484 102.881 35.5364 32.9336 21.721 20.9523 19.4417 30.2615 17.0882 15.4398 15.0804 13.6467 13.2633 11.6539 13.9662 9.57618 9.21648 7.94591 7.74694 7.43531 7.38045 6.91208 6.89931 9.6994 6.7861 8.48363 6.47092 6.22121 4.53249 8.44342 4.09041 3.66681 2.46106 2.25602 2.10327 1.84894 2.47729 4.07834 1.76011 1.5147 1.41677 1.4026 1.32737 1.18824 1.14919 0.926756 0.863712 0.814688 0.763729 3.53741 0.382493 0.0937686 0.0674983
threshold=0.10695554679994518 0.52506265664160412 0.29990364894842381 0.29087400544593889 0.52506265664160412 1.0000000180025095e-35 1.0000000180025095e-35 0.16508143351411925 0.48331479421579543 4.5000000000000009 0.032795698924731186 0.46389083545677345 0.37237631956422895 0.34891304347826091 4.5000000000000009 0.050815150325588899 13.500000000000002 1.0000000180025095e-35 0.21502373664346927 54.500000000000007 0.13645233384541886 0.65571120689655182 0.30151515151515157 0.13085543062082358 0.033426443202979522 0.17028985507246377 0.19375000000000003 0.17484754516006321 0.2817460317460318 0.37668918918918926 2.5000000000000004 0.95833333333333337 33.500000000000007 6.5000000000000009 18.500000000000004 0.48331479421579543 0.06438142691975611 0.20942982456140355 0.15192307692307697 0.3373349858765205 62.500000000000007 0.30985380767221021 0.023323813409492727 0.80909090909090919 0.15918111917537317 0.52290235685833619 0.23541457075788064 0.092404493245900179 0.16038191596025889 0.60989735379979293 0.73161241340039862 36.500000000000007 0.23710780350480723 0.16064516129032261 0.56077085410820715 21.500000000000004 22.500000000000004 0.31922407779421563 94.500000000000014
decision_type=2 2 2 2 2 2 2 2 2 2 2 2 2 2 2 2 2 2 2 2 2 2 2 2 2 2 2 2 2 2 2 2 2 2 2 2 2 2 2 2 2 2 2 2 2 2 2 2 2 2 2 2 2 2 2 2 2 2 2
left_child=1 2 5 4 7 -1 -3 17 10 26 16 28 13 14 25 40 -7 -2 33 27 -21 -8 -12 24 -6 -5 32 -19 -4 -30 31 34 -9 -11 53 -36 -23 -27 -32 -16 -10 42 43 -15 45 -40 48 -25 -38 -20 52 -44 -49 -14 58 -56 -48 -46 -33
right_child=3 6 11 12 23 8 21 9 15 18 22 -13 30 41 39 -17 -18 19 49 20 -22 36 -24 47 -26 37 -28 -29 29 -31 38 54 -34 -35 35 -37 46 -39 44 -41 -42 -43 51 -45 57 -47 56 50 -50 -51 -52 -53 -54 -55 55 -57 -58 -59 -60
leaf_value=-0.091130311454685697 -0.090243434051398397 -0.09001089468450349 0.048495709809517472 0.03569233952654044 0.068037027944299708 -0.030558271356428926 0.016223601994571842 -0.003113393321228793 0.010205384845557407 -0.014267863278778862 -0.078589457271898214 0.088052861091025655 0.085793082479779098 0.028054045730977969 0.038472987926319147 -0.060253884208398181 -0.060817557480340137 -0.0072106069008642656 0.082085903212837083 -0.044889708648662673 0.031935957717847921 0.033884738907348395 -0.056829819498733371 0.055100961052063226 -0.011218352055620684 -0.00048094263004853959 -0.040073644180128931 -0.05136533535058279 -0.061386369877149571 0.034823266877821793 0.056301677893575403 0.089592863297431463 0.054010587765291086 0.045583882154910375 -0.0013565706053092971 0.066397138234756875 0.075738084697559618 -0.058812492590095779 0.064269454531843059 0.080813121267500315 0.048972417951990976 0.090035424335912162 0.060333402705070351 0.083641011283960454 0.087389246468471238 0.085927025746765195 0.09061310999609927 0.075174416825090351 0.057044869206064733 0.053633130650431349 0.051924506868417222 0.087638930448390426 0.086591604026011987 0.054547746261860978 0.08992408298628457 0.036432363152131018 0.072027664436192795 0.090442714869179222 0.069729718823205056
leaf_weight=1095.8008156120777 9.6664295792579633 12.381918728351591 7.4847047477960613 5.7443931549787584 7.4814929962158185 55.61129292845726 8.7085331827402097 15.976851448416715 11.735796675086027 5.7415434122085598 242.88087433576584 19.078949272632599 8.6940429806709272 7.7133085578680021 6.4691053181886664 8.2420912235975248 171.72179736196995 11.988168030977247 36.351297870278358 9.7355204373598117 14.730710029602049 7.2362560927867881 65.063273474574089 7.9647640138864508 4.9931796342134476 4.9907719790935499 8.4901864081621152 37.671635434031487 5.2425787150859815 4.989387571811676 7.196063980460166 52.322023257613182 6.9897215217351905 15.961069881916044 8.2183451950550097 9.9353763163089734 35.658290296792984 6.2429291605949402 17.651034116744995 8.4582735300064069 5.2444441318511954 42.381482675671577 6.4605855047702816 6.4650153368711472 281.52776516973972 29.000181049108505 21.134374886751175 48.998532563447952 19.939741089940071 6.2190140038728705 4.9674662202596656 22.841555789113045 64.843402862548828 5.4646516144275656 9.4159406274557096 5.465026080608367 10.973277315497397 787.99455070495605 4.9644716829061499
leaf_count=4425 39 50 30 23 30 223 35 64 47 23 976 77 35 31 26 33 690 48 146 39 59 29 261 32 20 20 34 151 21 20 29 211 28 64 33 40 143 25 71 34 21 171 26 26 1136 117 85 197 80 25 20 92 261 22 38 22 44 3181 20
internal_value=6.48524e-06 -0.0702919 -0.0785734 0.0764209 0.0363081 -0.0814755 0.0504692 0.00599536 -0.0625782 0.0414115 -0.0653113 0.0517908 0.0859163 0.066193 0.0242915 -0.0043489 -0.0534541 -0.0344078 0.0619022 -0.0269474 0.00110393 0.0673695 -0.0740282 0.0753196 0.0360793 -0.00977227 -0.000360418 -0.0408425 0.0121848 -0.014105 0.0877984 0.0750267 0.0142139 0.0295276 0.0530057 0.0356111 0.0719862 -0.0335717 0.0889751 0.0631749 0.0226882 0.0816586 0.0731909 0.054159 0.0891762 0.0779946 0.0750307 0.07911 0.0692382 0.0781819 0.0806297 0.0820143 0.0817917 0.0745515 0.0847303 0.0709874 0.0846599 0.0896519 0.0880832
internal_weight=3473.52 1809.13 1693.1 1664.39 318.771 1656.3 116.032 179.522 560.5 95.7297 535.277 36.7956 1345.62 117.767 31.9055 25.2223 227.333 83.7925 64.2729 74.126 24.4662 103.65 307.944 139.249 12.4747 16.9781 31.4568 49.6598 17.7167 10.232 1227.85 104.48 22.9666 21.7026 32.3124 18.1537 94.9419 11.2337 1123.37 14.9274 16.9802 85.8619 43.4805 14.1783 1116.17 46.6512 87.7057 126.774 55.598 42.5703 118.809 29.3021 113.842 14.1587 72.1675 14.881 32.1077 1069.52 57.2865
internal_count=13999 7290 6824 6709 1280 6676 466 720 2251 384 2150 148 5429 474 128 101 913 336 258 297 98 416 1237 560 50 68 126 199 71 41 4955 421 92 87 130 73 381 45 4534 60 68 346 175 57 4505 188 352 510 223 171 478 118 458 57 291 60 129 4317 231
is_linear=0
shrinkage=0.05


Tree=3
num_leaves=63
num_cat=0
split_feature=17 5 15 17 15 0 5 5 17 5 3 3 11 5 3 6 5 9 0 5 1 7 17 2 5 10 17 13 0 0 13 6 4 5 11 0 2 9 5 3 9 0 17 11 3 6 6 9 3 3 0 7 11 5 0 9 10 6 7 17 5 17
split_gain=6299.02 1269.08 241.733 146.064 134.444 110.28 86.3926 55.6221 20.0973 23.518 19.4358 14.1487 32.4651 15.8079 11.5351 10.8551 9.61225 13.9967 9.34379 15.8677 13.3154 8.88214 8.34931 8.13053 7.47762 6.70235 12.0533 8.10896 6.30803 5.49914 5.25829 5.14981 4.71858 4.48202 4.10031 4.09112 5.166 3.55913 3.35786 3.23711 5.3216 2.93569 3.5144 2.75305 2.70318 3.80322 3.86416 2.61513 1.83165 1.7736 2.10431 1.6629 1.63775 1.2255 1.19897 1.02188 0.863461 1.61039 0.588748 0.472832 0.668311 0.577374
threshold=0.21406702770099759 0.52506265664160412 1.0000000180025095e-35 0.31888447377762213 1.0000000180025095e-35 0.1213537241574625 0.35147058823529415 0.43095238095238103 0.43420406601039346 0.33854166666666669 2.5000000000000004 6.5000000000000009 50.500000000000007 0.032795698924731186 3.5000000000000004 0.21240601503759401 0.8047619047619049 0.11638688494265632 0.10930934873949581 0.77097902097902116 0.14039408866995076 659.50000000000011 0.049705996519080142 0.024347899728997296 0.27429467084639503 38.500000000000007 0.14095822176044051 22.500000000000004 0.13811445341159209 0.045548849490758207 19.500000000000004 0.2817460317460318 1.5000000000000002 0.71130952380952395 57.500000000000007 0.12922201138519926 0.036429993364299938 0.57613871635610769 0.27097902097902099 1.5000000000000002 0.17290021103406697 0.13060200668896324 0.054952970616677026 61.500000000000007 2.5000000000000004 0.95833333333333337 0.65686274509803932 0.16218227155727158 5.5000000000000009 2.5000000000000004 0.070647653000594182 275.50000000000006 64.500000000000014 0.41042780748663105 0.060075187969924816 0.552687097490562 45.500000000000007 0.23904761904761906 456.50000000000006 0.55020100948864548 0.22902097902097904 0.54650510537174835
decision_type=2 2 2 2 2 2 2 2 2 2 2 2 2 2 2 2 2 2 2 2 2 2 2 2 2 2 2 2 2 2 2 2 2 2 2 2 2 2 2 2 2 2 2 2 2 2 2 2 2 2 2 2 2 2 2 2 2 2 2 2 2 2
left_child=1 2 -1 6 -3 7 10 11 9 14 37 13 -13 -4 31 24 17 22 19 20 47 23 -6 -9 32 28 27 -27 -7 33 -22 55 -12 -11 -23 36 -16 -2 51 40 43 42 -19 -18 45 46 54 -8 -30 50 -31 -17 -40 -51 -10 -5 57 -20 -42 60 -46 -62
right_child=3 4 5 8 16 25 18 21 44 29 15 12 -14 -15 35 38 39 41 56 -21 30 34 -24 -25 -26 26 -28 -29 48 49 -32 -33 -34 -35 -36 -37 -38 -39 52 -41 58 -43 -44 -45 59 -47 -48 -49 -50 53 -52 -53 -54 -55 -56 -57 -58 -59 -60 -61 61 -63
leaf_value=-0.087567896313487492 -0.080802161202072759 -0.088559091378558968 -0.051001637879219575 0.037840209518471918 0.047090164825349036 0.0054213729250299613 0.07835769090393202 0.043310200962676987 0.050865281065139357 0.0073833439501309571 -0.021528451844687987 0.040760060232794076 -0.060184213179665928 -0.068794845215296913 0.023611437862765972 -0.052917740657613122 0.06540680072765756 0.066751771317011752 0.08075906103068918 0.088510497593344492 -0.036128964326084888 0.0042200845916398758 -0.0296571468953888 -0.024614795478433097 0.075249958175903353 -0.055993966692439001 0.058674756567894108 0.021051062604524558 0.046039092690904324 0.079019620079325351 0.021722774930920456 -0.034188913701241656 0.035203598277933734 0.071431893728122503 -0.035080938836099827 0.077558161804285486 0.076067357136408165 -0.028349816499536096 0.02108985526092778 0.082696779439591334 0.085121857134779766 0.087506761795522262 0.026725200499623111 0.02783856270933532 0.069172388606264221 0.082467114661358934 0.021386621532132433 0.035704224373769411 0.084100625881635291 0.06780182877253052 0.032603622882879844 -0.018153227627918291 -0.018501217601245394 0.084613612362233387 0.080225172117379617 0.007221912686575834 0.08357437603505953 0.04251269524807344 0.065920794443206726 0.086732368201340934 0.084351862331886407 0.062562938605474253
leaf_weight=1091.5451506227255 10.148842811584471 14.496571704745291 226.38978472352028 6.225033178925516 6.710446283221243 6.4748816937208202 7.6915062069892945 13.973098844289781 7.8962531089782777 5.2281123101711255 6.7215569764375704 11.451309412717817 25.349286034703255 293.89793692529202 14.912042632699015 7.211696535348894 9.676290377974512 21.836535915732387 7.6294088214635831 14.538679882884024 7.9725721180438978 9.9745595753192919 7.2394054979085922 6.2342510521411887 5.952816739678382 7.2228234708309191 7.4376369565725318 6.2051869183778763 7.9747312813997251 6.1567887961864454 7.4670508205890656 5.4896323084831229 7.7078650891780853 6.1613706052303314 18.447818085551262 13.314704313874243 7.1817862242460242 5.4610254019498816 5.2356265038251859 82.08577099442482 21.246780455112457 11.800343006849287 8.2126477211713773 11.669225007295607 15.981270536780356 70.24089378118515 5.9248286187648764 8.4559691548347455 7.4348819404840469 18.740893706679344 5.1994205564260483 7.9453861266374588 4.9802750051021576 112.6970477104187 12.077675864100454 5.7308741956949234 31.23376838862896 6.1961228847503662 12.141570597887037 809.36295861005783 208.77382123470306 6.3752750903367987
leaf_count=4456 41 59 913 25 27 26 31 56 32 21 27 46 102 1187 60 29 39 88 31 59 32 40 29 25 24 29 30 25 32 25 30 22 31 25 74 54 29 22 21 332 86 48 33 47 65 286 24 34 30 76 21 32 20 459 49 23 127 25 49 3302 851 26
internal_value=1.0369e-05 -0.0592681 -0.073196 0.0771554 0.0576975 -0.0489867 0.0307125 -0.0544673 0.0824217 0.0678753 -0.0150774 -0.0589436 -0.0286124 -0.0610735 0.0387908 0.00128774 0.068771 0.0508209 0.0615653 0.0453083 0.0250491 -0.00306932 0.00697795 0.0220902 0.0284872 0.0284959 0.00786839 -0.0201288 0.0478104 0.0777814 -0.00786868 0.0051493 0.00846609 0.042787 -0.0211469 0.0551637 0.0411539 -0.0630675 -0.0203915 0.0760126 0.0657646 0.0652646 0.056103 0.0453276 0.0850608 0.0761469 0.058562 0.0566863 0.0651494 0.0805058 0.0586747 -0.0352602 0.00131218 0.0823079 0.0691787 0.0237602 0.0779592 0.0644058 0.0785065 0.0858722 0.0828022 0.0837588
internal_weight=3443.35 1947.13 1740.01 1496.22 207.116 648.468 152.55 605.718 1343.67 207.038 61.3651 557.088 36.8006 520.288 52.8541 45.7552 192.619 55.7994 91.1851 46.1258 31.5871 48.6297 13.9499 20.2073 20.3822 42.7501 20.8656 13.428 21.8845 154.184 15.4396 17.4455 14.4294 11.3895 28.4224 35.4085 22.0938 15.6099 25.373 136.82 54.7339 41.8495 30.0492 21.3455 1136.63 96.1397 25.8988 16.1475 15.4096 142.794 11.3562 15.1571 10.2159 131.438 19.9739 11.9559 45.0593 13.8255 33.3884 1040.49 231.13 215.149
internal_count=13999 7908 7071 6091 837 2615 616 2443 5475 840 247 2248 148 2100 213 184 778 225 369 186 127 195 56 81 82 172 84 54 88 627 62 70 58 46 114 143 89 63 102 553 221 169 121 86 4635 391 105 65 62 581 46 61 41 535 81 48 183 56 135 4244 942 877
is_linear=0
shrinkage=0.05


Tree=4
num_leaves=59
num_cat=0
split_feature=17 5 15 17 15 0 5 5 17 5 2 10 0 0 5 9 0 5 1 11 17 12 11 0 8 2 9 12 17 10 0 0 12 5 11 5 9 0 0 17 1 9 12 8 12 2 5 0 10 17 4 9 10 1 2 17 2 10
split_gain=5755.53 1159.1 227.673 135.485 122.6 100.314 78.8633 50.8094 18.972 21.8802 16.132 13.8558 10.6627 9.56579 8.86729 12.8117 8.67439 14.6602 12.1075 8.45428 7.57055 7.36042 9.88371 7.15906 6.96886 6.62271 7.98026 6.34296 10.6723 5.84309 5.1158 4.74134 5.91876 4.15258 4.06417 3.97625 3.59155 2.84894 2.77114 3.21817 2.4766 2.40428 1.96069 2.96369 1.73423 3.57695 1.53049 3.89596 3.16565 2.78238 2.77489 0.960639 0.805817 0.552262 0.551207 0.467911 0.244863 0.0823145
threshold=0.21406702770099759 0.52506265664160412 1.0000000180025095e-35 0.31888447377762213 1.0000000180025095e-35 0.1213537241574625 0.35147058823529415 0.43095238095238103 0.43420406601039346 0.33854166666666669 0.012539308176100631 8.5000000000000018 0.075093984962406032 0.04532614278376991 0.8047619047619049 0.11638688494265632 0.10930934873949581 0.77097902097902116 0.14039408866995076 47.500000000000007 0.049705996519080142 103.50000000000001 64.500000000000014 0.092903380484296347 107.50000000000001 0.064632165235553499 0.43770178967455781 45.500000000000007 0.16743233730097826 37.500000000000007 0.045548849490758207 0.12922201138519926 54.500000000000007 0.98387096774193561 57.500000000000007 0.18898809523809526 0.64824989824989843 0.0093025268258913139 0.13060200668896324 0.054952970616677026 0.11566332218506133 0.16218227155727158 75.500000000000014 76.500000000000014 33.500000000000007 0.090454545454545468 0.30151515151515157 0.066496598639455798 24.500000000000004 0.45969906692163059 2.5000000000000004 0.63958726168028501 45.500000000000007 0.19399641577060936 0.023323813409492727 0.52633748506888078 0.062746062992125998 122.50000000000001
decision_type=2 2 2 2 2 2 2 2 2 2 2 2 2 2 2 2 2 2 2 2 2 2 2 2 2 2 2 2 2 2 2 2 2 2 2 2 2 2 2 2 2 2 2 2 2 2 2 2 2 2 2 2 2 2 2 2 2 2
left_child=1 2 -1 6 -3 7 10 11 9 13 23 -4 -13 -5 15 20 17 18 41 35 -6 22 -9 40 -20 26 -21 36 29 -29 33 32 -15 -11 -23 -12 -7 -16 39 -17 -2 -8 57 -44 45 -32 47 48 -10 -49 -50 -33 53 -18 -46 56 -48 -39
right_child=3 4 5 8 14 27 16 21 46 30 19 12 -14 31 37 38 52 -19 24 25 -22 34 -24 -25 -26 -27 -28 28 -30 -31 44 51 -34 -35 -36 -37 -38 42 -40 -41 -42 -43 43 -45 54 -47 55 49 50 -51 -52 -53 -54 -55 -56 -57 -58 -59
leaf_value=-0.084417382975594632 -0.036948860098783044 -0.085241253449565152 0.0065792044213783948 -0.024482727261759707 0.044950811000448704 0.071240887989292401 0.075058123281705566 -0.012718096961538675 0.084260360776542323 0.012129054169321835 -0.055916547736909461 -0.060192086885531432 -0.039698118667727197 0.0097815191355372991 0.033885997689770318 0.063856444537681509 0.07234728489047286 0.08518142828853964 -0.050965460098137863 0.030725814497627325 -0.028203437291073254 0.006092018341807403 0.05808463158533677 -0.0038541837346782615 0.017945248937309925 0.068983829099968128 -0.043922522034660551 0.037129495291716816 0.075535201025923537 -0.023207063323479295 0.030756294042513017 0.079751000907151912 0.053509681093768052 0.074051938627052796 -0.032579459066094593 -0.00042665199827941221 0.025115123659887301 0.084340065616834881 0.084280507387990353 0.025449426140536614 -0.078716877914028566 0.034007640603336629 0.033097173172685505 0.071594510267244962 0.071959683671078814 0.083170485409072029 0.076387731776607279 0.042817731615983574 0.0066099491792203108 0.081276768941117752 0.056802572749814796 0.049420412655652987 0.080410599962308663 0.045997043748356344 0.082352177762715625 0.083470757758466185 0.083636436494609764 0.065270662412145408
leaf_weight=1076.0570256263018 6.6508238017559114 14.316130325198172 8.4487676471471769 5.4870446771383277 6.6837539225816709 9.4136406630277651 7.6339441090822282 10.216860368847849 5.6093040704727199 6.2134422957897169 5.704364746809004 468.97299587726593 76.187557741999626 15.189207062125208 5.2147118896245948 21.693369880318645 7.7991674542427045 14.359860941767691 5.7254906594753256 11.929828643798833 7.2371245324611664 10.221850112080576 9.2184684276580793 7.4755120724439612 9.7029032409191114 6.1845550686120978 4.9691599756479254 5.4530240148305955 4.9059014469385138 14.159349158406256 6.8994362950324994 8.7843292057514173 16.527770280838013 5.1151163429021835 18.925096347928047 7.6944628208875656 8.6829042434692365 47.329728111624718 11.647081553936003 8.1985006779432279 10.577202469110487 8.439334034919737 6.1849991977214804 71.727126613259315 36.248091906309128 7.2644337862730026 106.97856429219246 5.864628091454505 4.915015295147894 113.06125989556313 7.0727211833000183 6.6270092427730551 30.852926701307297 5.9138326197862625 90.676746338605881 817.66149054467678 60.213951081037521 5.1311830729246131
leaf_count=4456 27 59 34 22 27 38 31 41 23 25 23 1905 309 61 21 88 32 59 23 48 29 41 37 30 39 25 20 22 20 57 28 36 67 21 76 31 35 194 48 33 43 34 25 292 149 30 441 24 20 467 29 27 127 24 374 3382 249 21
internal_value=1.4988e-05 -0.0569317 -0.0703317 0.0742327 0.0553103 -0.0468082 0.029379 -0.0520572 0.0793532 0.0651545 -0.0143832 -0.0563594 -0.057345 0.0370575 0.0659077 0.0486123 0.0590282 0.0433325 0.0238884 0.00663224 0.00663319 -0.00291477 0.0207342 -0.0455221 -0.00746911 0.0250397 0.00835203 0.0271973 0.0102926 -0.00607419 0.0747903 0.044365 0.032822 0.0409295 -0.0188719 -0.0246603 0.0496437 0.0729042 0.0625109 0.0536092 -0.0631873 0.0541571 0.0743994 0.0686489 0.0774427 0.0583839 0.0819388 0.0760811 0.0526442 0.0794598 0.036862 0.0674336 0.0749351 0.0617608 0.0794826 0.082738 0.0790767 0.0826978
internal_weight=3404.25 1926.23 1720.86 1478.02 205.364 644.806 151.613 602.192 1326.41 205.033 61.1859 553.609 545.161 52.6154 191.048 55.4598 90.4275 45.8615 31.5017 36.4824 13.9209 48.5823 19.4353 24.7035 15.4284 23.0835 16.899 42.6148 24.5183 19.6124 152.417 47.1283 31.717 11.3286 29.1469 13.3988 18.0965 135.588 41.539 29.8919 17.228 16.0733 130.373 77.9121 141.089 14.1639 1121.38 136.523 17.597 118.926 11.9877 15.4113 44.5659 13.713 126.925 984.854 167.193 52.4609
internal_count=13999 7908 7071 6091 837 2615 616 2443 5475 840 247 2248 2214 213 778 225 369 186 127 147 56 195 78 100 62 93 68 172 99 79 627 191 128 46 117 54 73 553 169 121 70 65 532 317 581 58 4635 563 72 491 49 63 183 56 523 4072 690 215
is_linear=0
shrinkage=0.05


Tree=5
num_leaves=63
num_cat=0
split_feature=16 5 17 16 5 17 5 17 17 5 3 0 12 17 16 7 17 13 16 12 5 2 1 3 5 0 10 12 13 10 3 5 0 5 16 0 0 0 12 5 5 5 9 0 5 10 12 8 0 12 0 16 7 7 16 10 5 12 17 16 9 10
split_gain=5729.99 596.069 174.126 155.967 64.8593 58.5756 57.4763 49.65 44.7657 33.9259 42.1326 18.1313 17.3306 16.6471 14.9806 14.205 12.9194 10.1915 8.78925 13.3879 9.30518 8.1549 7.92234 7.66611 7.64486 7.49694 6.98096 8.4556 6.93257 5.84927 5.11762 4.86873 6.48659 4.25558 3.89024 3.6482 3.53146 3.16558 2.83124 2.7908 5.5778 2.70732 2.6324 2.53316 2.31563 2.29701 3.71235 3.01123 2.20342 2.09055 1.86977 1.82942 1.73051 1.66471 1.42631 2.73508 1.42306 1.375 3.97504 1.08207 1.03693 1.03028
threshold=0.11504639002076476 0.45643939393939398 0.29990364894842381 0.15918111917537317 0.65571120689655182 0.35048817523827563 0.64852941176470602 0.29493181232376658 0.37237631956422895 0.52506265664160412 4.5000000000000009 0.01617262423714037 95.500000000000014 0.46389083545677345 0.21502373664346927 484.50000000000006 0.2524390558757395 21.500000000000004 0.052566708168471657 122.50000000000001 0.032795698924731186 0.017910607356715142 0.14039408866995076 6.5000000000000009 0.48331479421579543 0.11067366579177604 33.500000000000007 147.50000000000003 13.500000000000002 12.500000000000002 2.5000000000000004 0.33854166666666669 0.07985507246376812 0.82971014492753636 0.083213078890074635 0.06416137379440133 0.064665471923536458 0.0085838491010904825 12.500000000000002 0.48331479421579543 0.19292803970223329 0.078461538461538485 0.46972392968834259 0.062305900621118022 0.15192307692307697 48.500000000000007 75.500000000000014 109.50000000000001 0.10729043683589139 277.50000000000006 0.013667496886674969 0.25815130979773154 512.50000000000011 582.50000000000011 0.29102542394011316 28.500000000000004 0.32843137254901966 51.500000000000007 0.47337496205143492 0.27929992315955737 0.29822594603099678 43.500000000000007
decision_type=2 2 2 2 2 2 2 2 2 2 2 2 2 2 2 2 2 2 2 2 2 2 2 2 2 2 2 2 2 2 2 2 2 2 2 2 2 2 2 2 2 2 2 2 2 2 2 2 2 2 2 2 2 2 2 2 2 2 2 2 2 2
left_child=1 2 18 5 7 6 15 12 9 10 22 37 21 34 23 24 17 -17 20 38 28 -3 35 -12 25 -2 -21 -28 29 -1 39 32 -7 -8 -4 -5 49 -6 -20 40 59 -40 -24 45 -32 46 -13 -47 56 -14 61 -16 -30 -9 55 60 -22 58 -41 -10 -11 -39
right_child=3 4 13 8 11 31 33 53 30 54 14 43 36 -15 51 16 -18 -19 19 26 48 -23 42 -25 -26 -27 27 -29 52 -31 44 -33 -34 -35 -36 -37 -38 50 41 57 -42 -43 -44 -45 -46 47 -48 -49 -50 -51 -52 -53 -54 -55 -56 -57 -58 -59 -60 -61 -62 -63
leaf_value=-0.025785080200866891 -0.067260088605990268 0.032111153800160677 0.031373821792471925 -0.0096882592896250889 -0.016325448328644864 0.01212166914034502 0.029987084406259374 0.043045748036266103 0.047723654868478647 0.028868012878633206 -0.0092302266212558985 0.06929377386102735 -0.038353525740373505 0.078651814693521019 0.057760723012168551 -0.048237116135834368 0.070641304157494103 0.011693921451197513 -0.037259787214470701 0.0022963498873528891 -0.080548347135097065 -0.040352958897628979 -0.0089164426307928972 0.045306334676657019 0.014023314071089194 -0.017870476132871179 -0.012911628769631672 -0.067321316027918382 -0.075331004799212897 -0.064019678661313417 0.048228867735162551 0.075274429279135469 0.07552450969273794 0.081062960980982687 -0.017684112956803302 0.024214575234139626 -0.088738379104163434 0.052587531796834064 -0.041894760812425713 0.024538270717076444 0.013375393494459101 -0.073444982340801976 -0.056104780565236406 0.080111241749263193 0.08023660223602648 0.04076856546333503 0.035544127161153516 0.079098303476196008 -0.045998626882048754 -0.071886876985321327 0.0010010874577578432 0.077747272736811535 -0.068298539519862006 0.0837962322533293 0.078739700333952667 0.071869332420257531 -0.070082350183420156 0.080909371182226006 0.071084755865491941 0.083320160136031884 0.062274914932284764 0.020879848378290711
leaf_weight=11.430290967226027 23.990490615367889 10.929819718003275 7.9267183989286405 11.164450779557226 6.5941838473081615 9.2571541070938128 6.1006771177053478 4.8396211862564078 5.1261802613735217 6.8207790702581388 8.9167745709419268 13.560802310705183 21.967470854520801 16.464175716042519 20.813754126429558 11.885925278067591 5.4191301465034476 17.093462750315666 7.2570371925830832 8.5960314124822599 580.44626460969448 5.8638142496347418 6.439829543232916 21.648679703474045 4.969282627105712 11.875469982624052 11.471998244524004 20.264324530959129 436.7369969189167 144.40544055402279 7.0056214034557334 33.750752404332161 7.4432595223188391 16.449960023164749 7.9337275475263596 25.595069348812103 6.6460470110177985 5.1235012114048022 8.4462413936853391 5.825140342116355 7.3362489789724341 133.84520633518696 5.9572147727012634 16.581379741430283 1027.0697061121464 8.2938128262758273 24.377114191651344 19.762542650103569 6.047089770436286 6.7952238321304312 6.5413746088743201 47.539197757840157 152.82633377611637 9.1801121383905393 81.628575131297112 64.327788725495338 49.343437716364861 31.103865802288055 35.375363871455193 7.2555673867464066 4.8216290920972824 7.0851398110389709
leaf_count=47 98 44 32 45 27 38 25 20 21 28 36 56 90 69 85 48 22 69 30 35 2431 24 26 88 20 48 47 83 1826 601 29 141 31 68 32 103 27 21 35 24 30 553 24 69 4317 34 100 81 25 28 27 196 638 38 341 266 205 130 148 30 20 29
internal_value=1.94791e-05 -0.0615585 -0.0711008 0.0693003 0.0262651 0.020415 -0.00212442 -0.0126185 0.0743563 0.0572835 0.0399787 0.0501609 -0.0351256 0.0435645 0.0587662 -0.0231699 0.000370192 -0.0127963 -0.0734657 -0.0630862 -0.0748843 0.00642388 0.00202839 0.0292553 -0.0430741 -0.051141 -0.0371088 -0.0479128 -0.07098 -0.0612656 0.0789807 0.0641176 0.0409588 0.0676594 0.00656369 0.0137837 -0.0549351 0.0128547 -0.0700292 0.0670692 0.0490333 -0.0716381 -0.0322597 0.061521 0.0800293 0.0566603 0.0478897 0.0681302 -0.0794417 -0.0466707 0.0234145 0.0718276 -0.0735284 0.0704877 0.0734752 0.0676568 -0.0797475 0.0718442 0.0647002 0.0694838 0.0435416 0.0349117
internal_weight=3357.59 1777.58 1603.44 1580.01 174.142 148.236 97.7844 66.2221 1431.77 305.674 148.075 107.92 52.2024 32.3246 98.9184 75.2338 34.3985 28.9794 1571.12 189.881 1381.24 16.7936 49.1566 30.5655 40.8352 35.866 40.3324 31.7363 745.399 155.836 1126.1 50.4512 16.7004 22.5506 15.8604 36.7595 35.4087 25.3442 149.548 92.0224 19.718 142.291 12.397 82.5757 1034.08 65.9943 37.9379 28.0564 635.837 28.7627 18.75 68.353 589.563 14.0197 157.599 75.9702 629.79 72.3044 41.2005 12.3817 11.6424 12.2086
internal_count=13999 7404 6689 6595 715 608 398 271 5987 1258 603 444 213 133 405 305 139 117 6556 783 5773 68 198 124 166 146 165 130 3112 648 4729 210 69 93 64 148 145 104 618 383 81 588 50 340 4346 271 156 115 2661 118 77 281 2464 58 655 314 2636 302 172 51 48 50
is_linear=0
shrinkage=0.05


Tree=6
num_leaves=63
num_cat=0
split_feature=16 5 17 17 5 16 5 17 3 14 3 0 17 16 16 17 7 17 5 16 6 5 16 7 6 8 11 6 7 16 10 0 3 6 16 9 17 0 11 9 17 11 10 0 0 0 6 5 2 0 8 0 8 5 16 4 3 9 10 16 9 9
split_gain=5258.43 548.836 160.135 146.198 85.7827 66.8436 59.1381 45.3763 21.428 19.2068 17.144 16.7382 15.5116 12.5466 10.8577 13.9996 13.4812 9.7799 9.3491 8.24788 8.02179 7.52334 11.7706 11.0901 6.7557 6.12032 7.47262 5.38895 5.35095 5.01478 4.8521 4.48778 4.22282 7.90641 6.0043 5.3702 4.16799 4.36435 4.08732 3.528 3.38871 3.24099 3.02623 2.87305 2.43262 2.4295 2.31742 2.26134 2.1402 5.06505 2.14106 1.6964 1.62632 1.38559 4.93456 2.16162 1.74144 1.14731 0.939717 0.93657 1.49599 0.55545
threshold=0.11504639002076476 0.45643939393939398 0.29990364894842381 0.31888447377762213 0.5270467836257311 0.21502373664346927 0.65571120689655182 0.22717197701195876 4.5000000000000009 1.0000000180025095e-35 5.5000000000000009 0.01617262423714037 0.46389083545677345 0.0073317682074928925 0.21502373664346927 0.37237631956422895 397.50000000000006 0.12764552156614045 0.48331479421579543 0.15918111917537317 0.2817460317460318 0.032795698924731186 0.052566708168471657 1616.0000000000002 0.19375000000000003 89.500000000000014 55.500000000000007 0.18465909090909094 611.50000000000011 0.12583115446099319 23.500000000000004 0.088365434669443008 3.5000000000000004 0.95833333333333337 0.31922407779421563 0.57011187388761775 0.55020100948864548 0.04532614278376991 74.500000000000014 0.22452559971356967 0.41190640808580353 64.500000000000014 25.500000000000004 0.0085838491010904825 0.083582834331337327 0.062305900621118022 0.31698564593301443 0.23669467787114848 0.033426443202979522 0.039258498159088974 109.50000000000001 0.013667496886674969 109.50000000000001 0.8047619047619049 0.16218651745766202 2.5000000000000004 1.5000000000000002 0.13175496298044309 43.500000000000007 0.25815130979773154 0.28101455033963413 0.17964684780610859
decision_type=2 2 2 2 2 2 2 2 2 2 2 2 2 2 2 2 2 2 2 2 2 2 2 2 2 2 2 2 2 2 2 2 2 2 2 2 2 2 2 2 2 2 2 2 2 2 2 2 2 2 2 2 2 2 2 2 2 2 2 2 2 2
left_child=1 2 9 4 5 10 7 13 24 -1 18 43 20 28 15 16 -5 31 19 -2 -4 25 46 -24 30 26 -11 -19 41 -6 -7 -12 33 34 35 -16 37 -17 -27 52 -9 -3 -36 -8 -18 48 -23 -39 50 -50 -13 58 -15 54 -31 -56 61 -30 -45 60 -10 -55
right_child=3 6 12 14 29 8 11 40 59 21 17 45 -14 39 32 36 44 27 -20 -21 -22 22 23 -25 -26 38 -28 -29 57 53 -32 -33 -34 -35 42 -37 -38 47 -40 -41 -42 -43 -44 51 -46 -47 -48 -49 49 -51 -52 -53 -54 56 55 -57 -58 -59 -60 -61 -62 -63
leaf_value=-0.079309315248329501 -0.047521523438517455 -0.0079734580572085444 0.046559455319450514 -0.01948161703190442 0.021831321227933367 0.065114848885562446 -0.015525696665880022 0.030372873452088202 0.074506909289875231 -0.062909125617474401 0.018332834019519968 0.044832088636123868 0.076142456551982429 -0.044092148297307239 0.050533593465459208 0.023989268670633931 0.030442632080860857 0.06368223566540708 0.021400633266131661 -0.0071378902085024801 -0.024592797829645952 -0.076183438447793753 -0.062803189855819647 -0.0022104541976068629 -0.030959195454386725 -0.068891103378882185 -0.038079118061700515 0.016312463276433022 -0.012759556627764394 0.012640791843825605 0.0030504152287851053 -0.037965576819301738 0.078152094289634613 0.076430183620051564 0.07831303413102926 0 0.076833278516811265 0.038438405276017211 -0.054782350819516892 -0.024596216965095855 0.07956690328513584 0.047658140149327378 0.04583173544971355 0.050273583587178254 0.080212638630402872 0.077459176954280756 -0.042396518129985447 0.06836734885036759 -0.0018638902677845931 0.058373518964491333 0.067758770570466892 0.00095180795908677998 -0.076725489199688607 0.045116918565189526 0.054077985464762751 0.077231746725592409 0.077618390556920491 -0.047855094063132944 0.019864855755208053 0.075323574345181651 0.041201140797968168 0.066042481550321483
leaf_weight=483.54496058821678 37.36877067387104 4.9202813059091586 6.9150853604078284 9.6131221503019351 6.5981227308511725 5.4603030830621737 6.5923626720905331 6.3890556544065502 7.8227032124996212 76.172207534313202 5.1999872028827658 19.06555287539959 16.167213976383209 7.0568438917398515 15.515713423490526 8.722246438264845 4.8033490180969221 8.6075549125671404 8.6969988495111448 19.618835344910622 8.9377560317516309 407.64122454822063 174.69700063765049 8.079389423131941 6.9525311440229407 263.56690204143524 53.867861464619637 21.181529685854912 5.335458040237425 5.1425861716270438 7.7039575725793839 10.13585279881954 888.31563851237297 130.1925777643919 22.636160030961037 7.9894299805164328 69.963976815342903 8.8856686949729902 72.331626325845718 7.1395240724086753 9.6738827675580961 5.1476681679487228 12.787933096289633 5.0966320335865039 6.6515903174877167 16.302091240882874 6.2368306517601004 44.130359694361687 5.331980735063552 9.1784453690052015 31.847419887781143 6.5412279367446891 15.02089014649391 7.930641338229182 24.546609595417976 23.690194115042686 59.587521955370903 5.0653398782014847 7.0800334066152573 33.627634882926941 8.7616966366767866 15.701898351311682
leaf_count=2075 153 20 28 39 27 22 27 26 32 320 21 79 69 29 65 36 20 35 35 79 36 1730 729 33 28 1113 225 86 22 21 31 41 3805 556 96 33 299 37 305 29 41 21 54 21 28 69 26 187 22 38 132 27 62 33 102 100 252 21 29 140 36 66
internal_value=2.20881e-05 -0.0593966 -0.0686597 0.0669504 0.0370398 0.0141282 0.0251714 -0.0120805 0.0522289 -0.0709534 -0.0100337 0.0480907 0.0418113 -0.0357582 0.0748285 0.0620513 0.0236964 0.0136037 -0.0263445 -0.0337433 0.00622803 -0.0671391 -0.0709549 -0.0601548 0.00828633 -0.0622278 -0.0526991 0.0303345 -0.00541972 0.0659569 0.0294674 -0.0185572 0.0766296 0.0694142 0.0537259 0.0334751 0.0681262 0.05807 -0.065885 -0.056751 0.0606182 0.0201678 0.0668902 0.012251 0.0602196 0.0591006 -0.0756967 0.0635271 0.0543385 0.0360353 0.0593761 0.0223301 -0.066766 0.0680342 0.060705 0.065689 0.0725967 -0.0306207 0.0333058 0.069683 0.0575632 0.0594506
internal_weight=3305.49 1750.94 1578.16 1554.54 324.336 181.138 172.785 65.7489 70.3288 1546.14 110.81 107.036 32.0201 49.686 1230.21 152.77 21.0681 45.1249 65.6846 56.9876 15.8528 1062.59 596.654 182.776 20.1168 465.939 130.04 29.7891 20.4687 143.198 13.1643 15.3358 1077.44 189.122 58.9292 23.5051 131.702 61.7383 335.899 29.2173 16.0629 10.0679 35.4241 25.3103 11.4549 81.7255 413.878 53.016 65.4234 14.5104 50.913 18.7179 22.0777 136.599 53.3794 48.2368 83.2201 10.4008 12.1767 50.212 16.5844 23.6325
internal_count=13999 7404 6689 6595 1340 739 715 271 289 6556 450 444 133 204 5255 646 87 183 267 232 64 4481 2518 762 81 1963 545 121 84 601 53 62 4609 804 248 98 559 260 1418 120 67 41 150 104 48 340 1756 224 271 60 211 77 91 574 223 202 351 43 50 208 68 99
is_linear=0
shrinkage=0.05


Tree=7
num_leaves=49
num_cat=0
split_feature=16 15 16 17 17 6 15 16 3 17 16 15 7 7 17 16 13 17 17 10 10 3 17 10 1 1 16 13 7 11 16 3 3 6 6 1 1 7 10 11 8 16 3 3 1 10 11 9
split_gain=4836.17 371.098 174.524 140.996 68.4731 68.3247 56.2646 40.3391 56.9672 32.9286 22.9727 20.3922 19.664 19.4656 18.3102 17.1117 13.4372 13.233 12.0773 12.1678 11.4801 8.58654 8.11583 7.25784 6.89602 6.82011 6.60434 6.42263 6.26808 6.25556 5.97138 4.23764 4.16461 4.16378 4.54051 3.83428 2.63951 1.63209 0.848779 0.744314 0.676003 0.516456 2.75693 0.348435 0.723569 0.147806 0.0714311 0.00279586
threshold=0.10695554679994518 1.0000000180025095e-35 0.15918111917537317 0.31129327930643785 0.29087400544593889 0.47213622291021679 1.0000000180025095e-35 1.0000000180025095e-35 1.0000000180025095e-35 0.37237631956422895 0.29102542394011316 1.0000000180025095e-35 496.50000000000006 197.50000000000003 0.045981832079513237 0.029752959235408549 14.500000000000002 0.44060109328268598 0.039405054750781369 28.500000000000004 54.500000000000007 4.5000000000000009 0.13645233384541886 68.500000000000014 0.24621212121212124 0.10762548262548265 0.083213078890074635 17.500000000000004 408.50000000000006 41.500000000000007 0.14170608391450426 7.5000000000000009 2.5000000000000004 0.95833333333333337 0.65686274509803932 0.18019480519480521 0.18019480519480521 799.50000000000011 83.500000000000014 58.500000000000007 140.50000000000003 0.30985380767221021 3.5000000000000004 2.5000000000000004 0.044949494949494954 46.500000000000007 80.500000000000014 0.17290021103406697
decision_type=2 2 2 2 2 2 2 2 2 2 2 2 2 2 2 2 2 2 2 2 2 2 2 2 2 2 2 2 2 2 2 2 2 2 2 2 2 2 2 2 2 2 2 2 2 2 2 2
left_child=1 -1 4 5 11 7 -4 8 16 10 13 -2 35 25 37 -14 -3 26 19 27 29 -21 -22 -10 28 -8 -5 -13 30 -20 -6 -15 33 34 -11 -9 47 39 -35 -7 45 42 -34 44 -12 -26 -45 -30
right_child=2 3 6 17 24 14 9 12 23 32 43 18 15 31 -16 -17 -18 -19 20 21 22 -23 -24 -25 40 -27 -28 -29 36 -31 -32 -33 41 38 -36 -37 -38 -39 -40 -41 -42 -43 -44 46 -46 -47 -48 -49
leaf_value=-0.077352363743423955 -0.078915161446147325 -0.022511101174726746 -0.092634174208383047 0.047413036946417846 -0.025159242125720668 0.053682438579713603 0.022530781053580126 -0.068180862436008613 0.011613048197411447 0.056976439022756765 0.070650785863594398 -0.059772183795773037 -0.069205107843759495 0.042828573703765839 -0.02179630602366401 -0.029931801872463394 -0.049251790885663997 0.074746024939735617 0.0073788193916404649 0.052452261753113606 -0.034903105896742434 -0.018395187165935113 0.027494417258239912 -0.032113410428282814 0.078677774913975637 -0.036713989565461132 -0.017355360622654047 0.0086799240129796732 0.080168798994445428 -0.048303848976714976 0.044482339571632008 0.060851991328848831 0.0542397778833845 0.072664082952814152 0.0065234025327916938 -0.028956481806311558 0.032109762184108777 0.037532843946843121 0.045127631514647076 0.084164180505528721 0.05418731556325096 0.076227938559342248 0.074238170203323142 0.070783546440460268 0.045477213244384057 0.05993759667405462 0.078707981147452255 0.058932018391839786
leaf_weight=1023.2644168436527 9.354285001754759 70.795757308602333 5.2120027244091025 8.3422072082757932 6.1035123020410555 5.009811192750937 10.828346446156504 132.95483861863613 80.675722658634186 21.183620095252994 12.122101545333864 5.6108140200376502 37.489174604415894 96.818489521741867 8.233773931860922 111.16875438392162 146.4045200496912 30.008732929825783 6.0970225632190731 21.509344130754474 7.3482487648725536 5.1587876528501502 17.031205207109451 10.612544417381285 22.00609573721886 8.6125671714544279 7.1543664485216132 8.2654410600662214 6.1641931086778659 24.96280711889267 5.9430322498083115 54.394799217581749 22.282251179218292 56.881225064396858 5.9697076380252829 7.2275524884462348 8.0571089982986432 4.8488753736019126 4.6543348282575598 10.044776454567907 8.5623100250959379 746.05770006775856 224.97993171215057 69.684943750500679 6.8555400967597953 5.9964861124753943 34.517830938100815 4.7449638843536377
leaf_count=4478 40 293 21 34 25 21 44 564 336 89 52 23 159 403 34 461 615 130 25 90 30 21 69 44 95 35 29 34 26 102 25 228 96 247 25 30 34 20 20 42 37 3268 982 299 29 26 149 20
internal_value=2.55242e-05 -0.058401 0.0637286 -0.0294845 0.0163249 -0.0356734 0.0696586 -0.0392655 -0.0266456 0.0702837 0.0553269 -0.00883892 -0.0527127 0.0433275 0.0402743 -0.0399094 -0.0405731 0.0553637 -0.00188244 0.0187722 -0.0170844 0.0385429 0.00841708 0.00644542 0.0555785 -0.00351309 0.017271 -0.0188703 0.0376813 -0.0372243 0.0088694 0.049381 0.0743353 0.0633221 0.0461323 -0.0662162 0.0555766 0.0661825 0.070739 0.0747717 0.0704776 0.0753071 0.0724789 0.0718617 0.0621051 0.0750702 0.0735294 0.0720052
internal_weight=3248.21 1694.24 1553.97 670.971 172.916 625.466 1381.06 597.329 308.489 1375.84 293.835 105.338 288.84 170.654 28.1372 148.658 217.2 45.5053 95.9837 40.5444 55.4393 26.6681 24.3795 91.2883 67.5777 19.4409 15.4966 13.8763 31.0128 31.0598 12.0465 151.213 1082.01 88.6889 27.1533 140.182 18.9663 19.9035 61.5356 15.0546 36.5649 993.32 247.262 123.18 18.9776 28.0026 104.203 10.9092
internal_count=13999 7290 6709 2812 722 2619 5987 2502 1288 5966 1239 434 1214 710 117 620 908 193 394 168 226 111 99 380 288 79 63 57 130 127 50 631 4727 381 114 594 80 83 267 63 158 4346 1078 529 81 121 448 46
is_linear=0
shrinkage=0.05


Tree=8
num_leaves=62
num_cat=0
split_feature=16 5 17 15 17 15 5 16 5 17 16 5 15 17 7 0 13 16 7 5 10 17 10 11 16 12 6 0 0 5 17 16 12 16 7 16 2 6 10 5 1 5 17 11 1 11 11 6 17 16 10 12 6 16 10 10 0 2 16 0 0
split_gain=4454.27 515.665 154.834 126.064 98.0838 87.9773 70.8385 54.332 36.4522 32.3633 18.0235 17.1155 15.5453 15.0092 14.4645 13.2534 12.6122 10.7353 14.662 9.92392 9.36118 8.55935 8.20988 8.0973 5.39146 9.94211 5.00462 5.96812 3.59821 3.41321 6.8343 5.20398 7.87915 3.54271 3.15885 1.69684 2.60871 4.08004 5.83521 2.00513 4.5922 1.68888 2.21752 1.65856 1.22717 0.939845 2.43806 4.22628 0.926524 1.12863 2.22707 1.01536 0.827792 0.672149 0.648545 0.631168 0.554675 0.300006 0.282334 0.122082 0.3031
threshold=0.12583115446099319 0.44636015325670503 0.29990364894842381 1.0000000180025095e-35 0.37237631956422895 1.0000000180025095e-35 0.5270467836257311 0.21502373664346927 0.62284482758620696 0.29493181232376658 0.013616215071795492 0.032795698924731186 1.0000000180025095e-35 0.46389083545677345 481.50000000000006 0.058981657179000641 13.500000000000002 0.052566708168471657 537.50000000000011 0.43095238095238103 72.500000000000014 0.20890316499251121 35.500000000000007 74.500000000000014 0.29102542394011316 32.500000000000007 0.2817460317460318 0.060075187969924816 0.0099751243781094536 0.28285714285714292 0.45969906692163059 0.33534907625852101 51.500000000000007 0.1568694380321248 93.500000000000014 0.26601744419794116 0.0089087301587301593 0.75961538461538469 50.500000000000007 0.65571120689655182 0.099019607843137278 0.82971014492753636 0.2524390558757395 58.500000000000007 0.18634259259259262 52.500000000000007 43.500000000000007 0.55050505050505061 0.52633748506888078 0.21502373664346927 26.500000000000004 10.500000000000002 0.39444444444444454 0.095347777981445406 24.500000000000004 56.500000000000007 0.058017765310892949 0.016997303543913714 0.10452902196012874 0.088365434669443008 0.085960591133004943
decision_type=2 2 2 2 2 2 2 2 2 2 2 2 2 2 2 2 2 2 2 2 2 2 2 2 2 2 2 2 2 2 2 2 2 2 2 2 2 2 2 2 2 2 2 2 2 2 2 2 2 2 2 2 2 2 2 2 2 2 2 2 2
left_child=1 2 5 -3 6 -1 7 12 9 10 43 16 -2 26 19 -9 22 34 -19 -14 -12 -16 -7 -18 25 -17 -4 -28 -10 30 31 32 -6 -32 -13 36 37 38 -8 40 -38 42 -30 -5 -11 46 -37 -48 49 50 -31 -51 -26 -43 -41 -52 -35 -53 -15 60 -50
right_child=4 3 13 8 29 11 35 15 28 44 20 17 14 58 21 24 23 18 -20 -21 -22 -23 -24 -25 52 -27 27 -29 41 48 33 -33 -34 56 -36 45 39 -39 -40 54 -42 53 -44 -45 -46 -47 47 -49 59 51 55 57 -54 -55 -56 -57 -58 -59 -60 -61 -62
leaf_value=-0.075234893276942147 -0.080900265836573573 -0.077914360315606751 0.033411603013064055 0.0066987107573836403 -0.013371167893540823 -0.0021428446033432227 0.052913185586941996 -0.0097137152900105203 0.020523966080262704 0.042671970132094311 -0.054857667911154089 -0.031051059246022125 -0.024268443202760275 0.074761551769145992 0.0054892864413548046 0 -0.05191554627842021 -0.060469447685879578 -0.027912677981342789 0.031812752283438404 0.01233769206854466 0.050351516375379414 -0.042388375002910011 -0.02474678848552463 0.071096348940414195 0.056501543329458705 -0.057904005413811389 0.017647854610512749 0.039246635954711874 0.024709454417790933 0.024056455877373803 0.077455354244552049 0.057942104918595964 0.049549169370617187 -0.067856548980570086 0.075747037015841456 0.0056709725164646001 0.077234534267964478 -0.01634141091376206 0.047795285965631137 0.065412906783045663 0.067830326539750949 0.071814662311062413 0.044155045932746197 0.07637970837296125 0.075549240711476659 0.017231082682115588 0.074546203574659783 0.07191273582259726 0.043023757839272772 0.07176447453368337 0.06614741587347199 0.043826502977583802 0.049528796173570713 0.0728719167428106 0.053066098955036056 0.072558886003600692 0.073463449189271723 0.054525032932387786 0.074659917466904355 0.056349833271261196
leaf_weight=977.50090101361275 5.8767150789499274 26.005762606859207 8.0680096447467822 4.9762190580368033 7.9667339622974414 33.180380269885063 7.3023204654455203 8.3477838039398176 6.413466438651084 5.2031123191118267 20.866426169872287 6.8400356918573371 46.791876405477524 11.895747169852259 27.491332933306694 10.323121204972265 126.13319298624992 87.075930655002594 59.051961064338684 9.3257633894681913 6.6931021362543097 17.574459627270699 20.700858443975449 36.428653493523598 38.393745303153992 30.505427628755569 4.9581114500761014 5.1945004761219025 19.762143060564998 4.6248838752508155 4.6394765377044669 5.5880623161792746 7.2331809997558594 5.1432556062936774 155.63983748853207 16.288408085703853 4.8009575456380835 5.5902840793132773 4.952243909239769 4.9203224033117285 11.145795375108717 58.828427255153656 8.3282932639121992 8.8877041935920698 11.833084896206854 57.935086563229561 7.1646104305982572 6.3339471817016602 168.0193272382021 4.5761373192071906 18.520043730735782 49.27001029253006 4.7717864215373984 9.4838731139898282 41.76618891954422 12.570192098617552 80.342573881149292 147.49480268359184 7.0622715502977362 568.85752442479134 8.4767578542232496
leaf_count=4385 25 113 33 20 33 137 31 34 26 22 85 29 191 53 111 42 536 371 245 38 27 73 86 154 165 128 20 21 82 20 20 24 31 22 667 72 20 24 21 21 48 249 36 36 52 256 31 28 751 20 81 218 21 40 180 55 358 659 31 2553 38
internal_value=2.70419e-05 -0.0543288 -0.0638579 0.0239806 0.0642857 -0.0663535 0.0418905 0.0216775 0.0404802 0.00883268 -0.0149434 -0.0497981 -0.00252201 0.0367718 0.0020562 0.0497606 -0.0389089 -0.0574039 -0.0473752 -0.0148198 -0.0383722 0.0231678 -0.0177474 -0.045877 0.0557355 0.0421893 0.00400958 -0.0189657 0.0583999 0.0718065 0.0629046 0.0362701 0.0203948 0.0689456 -0.0663579 0.0657963 0.0598529 0.041717 0.024616 0.0648656 0.0478859 0.060844 0.0493003 0.031213 0.0666857 0.0711175 0.0621066 0.0448432 0.0727999 0.0694061 0.0596219 0.0710864 0.0683056 0.0654387 0.0704437 0.0645592 0.0712924 0.0716914 0.067811 0.0738631 0.0712259
internal_weight=3187.94 1727.01 1539.73 187.282 1460.93 1502.55 367.602 199.402 161.276 58.4596 41.4235 525.051 107.06 37.1786 101.183 92.3419 216.443 308.608 146.128 56.1176 27.5595 45.0658 53.8812 162.562 83.9941 40.8285 18.2206 10.1526 102.816 1093.32 110.913 20.788 15.1999 90.1253 162.48 168.2 80.4781 17.8448 12.2546 62.6333 15.9468 96.4027 28.0904 13.8639 17.0362 87.7221 29.787 13.4986 982.41 237.056 35.7151 201.341 43.1655 68.3123 46.6865 31.0902 85.4858 196.765 18.958 745.354 176.496
internal_count=13999 7556 6768 788 6443 6610 1560 828 675 242 168 2225 438 158 413 390 913 1312 616 229 112 184 223 690 356 170 74 41 433 4883 488 88 64 400 696 732 345 76 52 269 68 407 118 56 74 387 131 59 4395 1053 156 897 186 289 201 136 380 877 84 3342 789
is_linear=0
shrinkage=0.05


Tree=9
num_leaves=53
num_cat=0
split_feature=17 15 17 0 6 7 3 6 2 1 17 0 10 0 11 4 3 0 3 6 17 17 3 10 0 8 2 17 2 17 17 1 10 2 3 13 0 7 10 1 17 3 1 13 6 10 8 0 6 7 7 7
split_gain=3799.47 574.048 98.0423 90.5251 82.4247 49.2117 38.5563 33.6171 23.7066 25.8163 20.8106 19.4092 11.9932 11.9598 10.6836 11.1786 9.32646 7.08897 6.97807 7.50915 4.7432 4.2874 3.8887 3.59374 3.3264 6.27341 5.12876 2.7061 2.6657 2.5126 2.37303 2.31368 2.23709 3.37405 2.70973 2.14506 1.95822 1.84931 1.696 1.11194 1.02726 0.72309 0.371057 0.532867 0.338195 0.272877 0.23572 0.149356 0.132433 0.0647317 1.17472 0.0823259
threshold=0.21406702770099759 1.0000000180025095e-35 0.36919944855975412 0.13310023310023314 0.59411764705882364 507.50000000000006 6.5000000000000009 0.65686274509803932 0.011952380952380954 0.016671297582661854 1.0000000180025095e-35 0.020478054235392788 128.50000000000003 0.15339366515837108 67.500000000000014 3.5000000000000004 2.5000000000000004 0.072821969696969704 2.5000000000000004 0.95833333333333337 0.14095822176044051 0.29087400544593889 3.5000000000000004 18.500000000000004 0.16744548286604363 148.50000000000003 0.1676706827309237 0.2463992860327758 0.036867142371729535 0.47853219979094036 0.49596519953477347 0.11566332218506133 62.500000000000007 0.035131799347615275 3.5000000000000004 25.500000000000004 0.10930934873949581 142.50000000000003 126.50000000000001 0.14039408866995076 0.15277419406209033 2.5000000000000004 0.14039408866995076 23.500000000000004 0.20526315789473687 116.50000000000001 97.500000000000014 0.10029585798816569 0.29705882352941182 236.50000000000003 159.50000000000003 600.50000000000011
decision_type=2 2 2 2 2 2 2 2 2 2 2 2 2 2 2 2 2 2 2 2 2 2 2 2 2 2 2 2 2 2 2 2 2 2 2 2 2 2 2 2 2 2 2 2 2 2 2 2 2 2 2 2
left_child=1 -1 6 4 5 10 7 13 12 -10 11 -3 -7 14 16 -16 -2 21 19 23 -12 -8 -5 29 25 31 44 36 39 -4 32 -24 33 34 -20 41 -19 -15 49 -25 46 45 -29 -44 -26 -9 -6 -35 -38 50 -21 -51
right_child=2 3 18 22 40 8 17 35 9 -11 20 -13 -14 37 15 -17 -18 27 30 38 -22 -23 24 28 26 -27 -28 42 -30 -31 -32 -33 -34 47 -36 -37 48 -39 -40 -41 -42 -43 43 -45 -46 -47 -48 -49 -50 51 -52 -53
leaf_value=-0.073538228857821145 -0.052592861964056374 -0.041512571818321992 0.023719530875582567 0.07484550991468096 0.059125394978757462 -0.019988805779437964 -0.013667319103856627 0.062142307851863011 0.019507387150065662 -0.019134956903820399 -0.068501997414200141 -0.016365090433312988 -0.071559397981822273 0.025800745881626765 0.031786756901932452 -0.043696278233951037 -0.0065355962034033335 0.014052727628176546 0.0141383032392184 0.073187499952242413 -0.041171826867567464 0.044243760940974347 -0.011810879791619478 0.031673240071040019 0.056784911925877202 0.065014944192421043 0.0086588094241494742 0.074797760467672891 0.055678896490305801 0.069924009317641686 0.071986205693542596 0.02661062321238879 0.072792167704665608 0.057608973790284651 0.0537137169503656 0.025836653389884823 0.063794542558924222 0.07093362295561427 0.03344709071155906 0.0020880468863905704 0.048551455717243029 0.074325393812319562 0.056988399146336348 0.070938906613236333 0.078655682586649789 0.038835875594247282 0.080952870416515499 0.068964996850240809 0.041849347383276114 0.07399727808663914 0.047951334013267018 0.057597794889667514
leaf_weight=981.90631522238255 15.715228840708731 172.97338174283504 4.8270987868309012 10.084869086742399 5.7477178126573625 137.99244995415211 5.0639462172985059 6.2140748053789192 99.560816943645477 76.167324647307396 51.025466129183769 139.76297920942307 12.310547560453413 5.0147039443254453 24.478981167078022 5.989546835422515 37.206865966320038 5.079461306333541 5.3518852889537802 14.026557356119158 25.691881239414215 7.9486633092164993 7.7453361749649066 4.7694851458072689 9.145246043801313 6.7338194549083701 5.1473582834005347 18.938659176230431 4.6406038105487815 10.32730285823345 819.03549179434776 7.5531812310218811 74.237463533878326 13.880744531750677 39.48064149916172 4.5896514207124701 4.9402584582567197 5.3267280906438828 4.5748100131750098 10.381882846355436 7.7213144600391379 14.883518010377882 30.614515230059624 19.792819961905479 7.2625355869531623 4.7117905914783478 12.078835338354109 67.636565923690796 4.5101024806499481 34.344181180000305 10.950262501835821 6.2118609249591819
leaf_count=4515 66 739 20 44 25 584 21 27 422 319 222 605 52 21 103 25 154 21 23 64 109 34 32 20 40 29 22 85 20 46 3765 32 338 62 176 20 22 23 20 44 33 67 135 88 32 20 52 308 20 156 49 28
internal_value=3.11431e-05 -0.0479694 0.0634049 -0.016366 -0.0209138 -0.0240731 0.032896 0.014373 -0.00971586 0.00272852 -0.0360738 -0.0302989 -0.0242907 -0.000410249 -0.00677196 0.0166902 -0.02038 0.0565364 0.0693925 0.0567121 -0.05948 0.0213936 0.0462528 0.0372666 0.0393666 0.0250898 0.0535453 0.061897 0.0226257 0.0557863 0.0706884 0.00688349 0.0653313 0.060854 0.0491427 0.0599711 0.0408246 0.0499836 0.0662669 0.0118756 0.0671166 0.0657251 0.0661751 0.0626948 0.0671862 0.0529882 0.0745632 0.0671655 0.0543928 0.0684274 0.0625583 0.0717562
internal_weight=3122.31 1776.61 1345.7 794.705 741.033 715.485 221.02 124.131 326.031 175.728 389.454 312.736 150.303 93.7321 83.3906 30.4685 52.9221 96.8884 1124.68 105.054 76.7173 13.0126 53.6723 34.9464 43.5875 22.0323 21.5551 83.8758 19.792 15.1544 1019.62 15.2985 200.587 126.35 44.8325 30.399 14.5298 10.3414 70.1077 15.1514 25.5479 25.8094 69.346 50.4073 16.4078 10.9259 17.8266 81.5173 9.45036 65.5329 24.9768 40.556
internal_count=13999 7908 6091 3393 3162 3052 952 526 1377 741 1675 1344 636 392 348 128 220 426 5139 467 331 55 231 150 187 93 94 371 84 66 4672 64 907 569 199 134 63 44 317 64 110 114 308 223 72 47 77 370 42 297 113 184
is_linear=0
shrinkage=0.05


Tree=10
num_leaves=57
num_cat=0
split_feature=16 5 15 15 16 1 15 5 5 3 1 5 16 7 1 8 3 6 16 7 7 10 10 6 16 2 0 16 12 5 1 11 6 5 5 5 1 8 0 4 12 12 8 4 10 0 5 5 5 6 1 16 12 16 1 10
split_gain=3824.18 456.509 122.307 111.961 84.1894 64.6487 41.4915 36.9633 36.7715 23.8391 20.2832 13.2055 15.1458 17.0302 12.5154 10.1332 9.93169 12.0095 9.80299 9.61428 8.39412 7.72147 6.57153 6.05544 8.35024 6.23601 5.79855 5.07355 6.45077 7.08379 6.71238 4.98866 4.52951 3.61052 3.5402 3.21818 3.41811 4.46305 3.10404 2.09582 1.79425 3.18391 1.56965 1.39552 1.13591 1.07271 1.0721 0.782635 0.456338 0.403973 0.341493 0.362672 1.39677 0.244024 0.230191 0.00527623
threshold=0.12583115446099319 0.43095238095238103 1.0000000180025095e-35 1.0000000180025095e-35 0.21502373664346927 0.22048611111111113 1.0000000180025095e-35 0.47722567287784684 0.62284482758620696 2.5000000000000004 0.26393188854489169 0.032795698924731186 0.047707425651538439 549.50000000000011 0.22048611111111113 89.500000000000014 2.5000000000000004 0.95833333333333337 0.013616215071795492 484.50000000000006 512.50000000000011 35.500000000000007 72.500000000000014 0.47213622291021679 0.29324497539271405 0.0089087301587301593 0.04532614278376991 0.29102542394011316 39.500000000000007 0.27097902097902099 0.22967032967032971 55.500000000000007 0.13484848484848486 0.15192307692307697 0.32843137254901966 0.68857758620689669 0.24621212121212124 112.50000000000001 0.0099751243781094536 4.5000000000000009 73.500000000000014 81.500000000000014 126.50000000000001 2.5000000000000004 27.500000000000004 0.070647653000594182 0.39696969696969703 0.31142241379310348 0.43095238095238103 0.44949494949494956 0.39444444444444454 0.55413668211691436 35.500000000000007 0.021849628936961622 0.026671408250355622 28.500000000000004
decision_type=2 2 2 2 2 2 2 2 2 2 2 2 2 2 2 2 2 2 2 2 2 2 2 2 2 2 2 2 2 2 2 2 2 2 2 2 2 2 2 2 2 2 2 2 2 2 2 2 2 2 2 2 2 2 2 2
left_child=1 2 -1 -3 6 11 -2 9 10 26 18 15 34 -14 19 21 17 23 42 -11 -17 -4 -20 24 32 -25 -8 28 29 30 -18 44 -6 -28 -13 36 37 -9 -10 -16 53 -42 -5 46 -7 -26 -30 -46 -45 -38 -19 52 -52 -40 -29 -37
right_child=4 3 5 8 16 31 7 35 38 14 -12 12 13 -15 39 20 27 50 22 -21 -22 -23 -24 25 45 -27 33 54 43 -31 -32 -33 -34 -35 -36 55 49 -39 40 -41 41 -43 -44 48 47 -47 -48 -49 -50 -51 51 -53 -54 -55 -56 -57
leaf_value=-0.07177429047330551 -0.080235642960178571 -0.073892176330580761 -0.0042093200065286647 0.013184514614935923 0.034658422653274325 0.06858962984603019 -0.059084046833090501 0.015333973721613098 0.020406416953025603 0.0018927617560660236 0.070219751992077223 -0.066809476870495751 -0.054864355741840634 -0.021507103321831839 0.044842205202127068 -0.049890096320113597 -0.012136439588074987 0.072112797243157403 -0.030541487851384996 0.036368343399103907 -0.022465268173034035 -0.040314100196641792 0.016983435723730667 -0.026342735220745692 0.047096997759760562 0.043474546247435457 0.019252244819185277 0.059018400602709589 0.069835619750942365 0.061808046536164757 0.062085928278434968 0.0020255182326611972 -0.022977708774862077 -0.035602605755368409 -0.04169855071343459 0.058551166274986091 0.051770889655623945 0.053666646845232036 0.0735280916167214 0.071603684128710904 0.014657114575486414 0.056375288979918781 0.048319267505846926 0.062171426019560438 0.02198313416880816 0.074561282993689915 0.05063242625068614 0.05492589974534421 0.071265278598610482 0.07239412188956483 0.032622267070219223 0.070892722654064197 0.066013665762600524 0.053682213640937664 0.070410773780900757 0.070884566279095271
leaf_weight=925.87089063227177 7.3787452280521384 26.29636824131012 37.51509815454483 7.400218799710272 9.7086243778467161 7.776343494653708 8.4699047207832354 11.889322042465208 6.4031517654657355 42.09786356985569 10.446956589817999 129.72254648804665 95.905780881643295 64.986567944288254 33.254498809576035 111.52082574367523 9.2561042457819003 33.748309642076492 29.115631252527237 39.422277346253395 38.561923548579216 24.788680166006088 9.4658064097166044 7.3073216378688794 7.9896662682294872 5.5068669021129608 6.6594891101121885 13.777461215853689 13.416287094354628 15.193290650844572 4.3753942996263495 6.849062740802764 5.0361561179161063 5.2443037331104279 17.751782089471817 9.1563727408647519 7.0012442469596889 23.823428422212601 21.577225372195247 11.147652938961981 5.3867956250905982 61.807789579033852 6.4363139569759369 43.876780331134796 4.5674699544906598 12.670617833733557 33.645899415016174 4.4236918389797211 73.930755898356438 16.527443051338196 6.3051370084285763 9.7825724184513074 9.6161615997552854 5.6508783847093573 814.58475601673126 47.519254788756371
leaf_count=4382 32 120 157 30 41 35 35 50 26 176 48 571 419 273 150 486 39 155 121 166 165 105 39 31 35 24 28 61 58 69 20 30 21 22 76 41 32 103 96 52 23 264 26 203 20 57 150 20 345 77 29 46 45 24 3836 214
internal_value=3.55979e-05 -0.0512812 -0.0607066 0.0216259 0.0609235 -0.0418637 0.0357567 0.0390692 0.0370368 0.0222808 0.00691643 -0.0455386 -0.0521933 -0.0414437 0.0304176 -0.035833 0.066921 0.052153 -0.00571446 0.0186502 -0.0428966 -0.018696 -0.0187384 0.0332943 0.043941 0.00337821 -0.0276687 0.0684666 0.0608481 0.0383601 0.0116017 0.0388077 0.0146135 -0.0045932 -0.063851 0.0601769 0.0514666 0.0411232 0.0557419 0.0518191 0.0580611 0.0531319 0.0301163 0.0647239 0.0534346 0.0644593 0.0563493 0.039167 0.0679763 0.0667141 0.067283 0.0604929 0.0533883 0.0698038 0.0702345 0.0690867
internal_weight=3059.55 1660.23 1470.24 189.987 1399.32 544.37 269.592 262.213 163.691 146.296 62.8649 520.753 308.367 160.892 125.922 212.387 1129.73 107.671 52.418 81.5201 150.083 62.3038 38.5814 48.2193 35.4051 12.8142 20.3737 1022.06 193.695 28.8248 13.6315 23.6166 14.7448 11.9038 147.474 115.917 59.2414 35.7128 100.826 44.4022 94.4227 67.1946 13.8365 164.87 16.7675 20.6603 47.0622 8.99116 117.808 23.5287 59.4522 25.7039 15.9213 27.2281 828.362 56.6756
internal_count=13999 7556 6739 817 6443 2357 1178 1146 697 629 264 2252 1339 692 544 913 5265 484 216 342 651 262 160 209 154 55 85 4781 884 128 59 105 62 50 647 517 262 153 433 202 407 287 56 756 75 92 208 40 548 109 275 120 74 120 3897 255
is_linear=0
shrinkage=0.05


Tree=11
num_leaves=55
num_cat=0
split_feature=16 5 17 17 15 5 15 16 16 5 3 15 13 17 7 5 3 5 7 17 16 7 1 5 9 16 17 5 16 9 16 2 17 7 7 11 17 7 0 7 16 5 11 7 3 0 17 7 17 16 16 17 8 9
split_gain=3536.67 368.438 140.322 139.17 90.2086 79.7489 57.903 53.1169 19.9161 20.5618 19.1219 15.4141 14.8696 12.083 10.82 10.6721 9.41677 8.1378 10.7929 7.83777 7.29217 8.13732 5.45069 5.3822 4.98538 4.4094 5.33222 5.69451 4.38324 4.24715 3.69515 5.63941 3.43633 3.43467 2.15557 1.8706 1.81814 1.72537 1.90955 1.5783 3.0255 1.20706 2.64109 2.36253 1.47508 2.28695 1.07096 1.05203 1.58704 0.625183 0.467251 1.56285 0.329904 0.202947
threshold=0.10695554679994518 0.58957219251336912 0.31888447377762213 0.29990364894842381 1.0000000180025095e-35 0.5270467836257311 1.0000000180025095e-35 0.20935092244046546 1.0000000180025095e-35 0.48331479421579543 4.5000000000000009 1.0000000180025095e-35 14.500000000000002 0.46389083545677345 481.50000000000006 0.44636015325670503 2.5000000000000004 0.48331479421579543 197.50000000000003 0.20890316499251121 0.027564810115680943 549.50000000000011 0.12310606060606062 0.15504807692307696 0.066402049077564931 0.21502373664346927 0.38541461627926321 0.28285714285714292 0.084937228453786165 0.39646273753356104 0.13085543062082358 0.033426443202979522 0.45969906692163059 644.50000000000011 468.50000000000006 61.500000000000007 0.3644860925838605 1587.5000000000002 0.052738553701326497 487.50000000000006 0.2712894269293375 0.8047619047619049 58.500000000000007 476.50000000000006 1.5000000000000002 0.03778684344722081 0.55020100948864548 340.50000000000006 0.47337496205143492 0.20659362935295197 0.30985380767221021 0.40465879814550021 141.50000000000003 0.51032592141334165
decision_type=2 2 2 2 2 2 2 2 2 2 2 2 2 2 2 2 2 2 2 2 2 2 2 2 2 2 2 2 2 2 2 2 2 2 2 2 2 2 2 2 2 2 2 2 2 2 2 2 2 2 2 2 2 2
left_child=1 3 5 4 -1 7 -3 11 9 12 22 -2 -6 28 15 -13 17 18 32 -16 52 -22 29 -18 -8 26 27 -25 33 -9 31 -7 -4 -5 53 -11 -19 38 -36 40 -12 42 43 -32 45 -43 -28 48 -38 -44 51 -27 -10 -26
right_child=2 6 16 13 8 30 24 10 20 35 39 14 -14 -15 19 -17 23 36 -20 -21 21 -23 -24 25 34 50 46 -29 -30 -31 41 -33 -34 -35 37 -37 47 -39 -40 -41 -42 44 49 -45 -46 -47 -48 -49 -50 -51 -52 -53 -54 -55
leaf_value=-0.070255819500555122 -0.072545152693418422 -0.072663386639053681 0.019518275758706696 0.0037922763926324619 -0.018308295106021024 0.056240420010801477 0.016953693704941451 -0.0076769798024182425 -0.072163086063569262 0.0038736149471405665 0.028240099921702479 -0.031606794548333726 -0.045406068632801298 0.068313117119893352 -0.0044977830367973551 0.029844188478270247 0.02283854750307612 0.027479100166091189 -0.019529777884090466 0.036623879233630384 -0.05820004175163105 -0.037486313457345689 -0.038432545272641505 -0.0053973529178220842 0.075153698800105431 0.053443518445509208 0.05581932492975588 0.050529145013861736 -0.017218513824509257 0.043711072483760695 0.055097088633454895 -0.011223769858683431 0.067924787550999441 0.062218364955211471 0.043677212887052952 0.043531319975918553 0.033258112010995815 0.077826506038503232 0.074141069254943612 0.070565935958516457 0.06277732239605989 0.074136347275083558 0.04678519730276786 0.015879516113755945 0.069363388485801578 0.038745946665340897 0.068160634260480399 0.069633048318445287 0.060002219790484881 0.066732309588287173 0.069365910565292982 0.067633218480503104 -0.057950896424430555 0.056056432921347078
leaf_weight=908.82569926977158 9.9155681878328306 10.042579576373099 6.540373355150229 5.6234390288591403 72.981512039899826 7.9344336390495283 9.0456904023885709 7.9117723405361193 47.769932821393013 5.4733493030071241 10.979496255517008 48.854019299149513 172.29898552596569 17.525409236550331 35.906446158885956 8.0934567302465421 7.3376246541738501 5.1539797931909552 8.5942002087831479 16.884845659136772 111.39684677124023 87.700786247849464 5.8902808278799048 6.1103227287530926 17.620265722274784 29.694668978452682 42.868109717965126 15.965376138687132 8.0415571182966215 7.7528278082609177 7.9468850344419506 4.818910151720047 9.8106441050767881 4.7821947038173676 44.716252148151398 7.3609291762113571 8.2787744551897031 6.2773429304361335 6.7010748684406272 19.649902746081352 18.707703053951263 8.0428938418626803 8.8050386756658572 8.4648862481117231 53.425010308623314 14.23156727850437 55.829422831535339 27.801034092903137 34.243947207927704 22.839446783065796 696.28805653750896 146.50564739108086 12.372793406248091 6.2558323293924323
leaf_count=4429 46 46 27 23 309 34 38 32 217 22 47 203 755 83 146 33 33 23 36 70 500 373 24 25 79 137 198 72 33 32 36 20 45 20 191 30 37 27 30 86 86 36 38 37 247 63 268 132 162 106 3385 707 56 29
internal_value=3.84923e-05 -0.0519326 0.0569161 -0.058304 -0.0607556 0.0281201 0.0405334 0.00718372 -0.0440469 -0.0341366 0.0414664 -0.0131038 -0.0373744 0.0386534 -0.00762619 -0.0227486 0.065462 0.0505315 0.0252739 0.00860447 -0.0538778 -0.0491243 0.0019177 0.0669503 0.0531998 0.0672688 0.0578613 0.0348693 0.00998973 0.0175551 0.0572809 0.0304708 0.0491026 0.0314562 0.0571324 0.027166 0.0587684 0.0513545 0.0478807 0.0586048 0.0503096 0.0599766 0.0527822 0.0353909 0.0644022 0.0520225 0.0629129 0.0609483 0.0550029 0.0615044 0.0685585 0.0653019 -0.0694233 0.0706132
internal_weight=2990.89 1562.81 1428.08 1462.15 1426.18 327.055 100.659 190.546 517.355 258.115 70.892 119.654 245.28 35.9726 109.739 56.9475 1101.02 100.423 24.9452 52.7913 259.24 199.098 21.5549 1000.6 90.6165 993.262 120.773 22.0757 18.4472 15.6646 136.509 12.7533 16.351 10.4056 81.5708 12.8343 75.4777 57.6947 51.4173 49.3371 29.6872 123.756 48.0563 16.4118 75.6995 22.2745 98.6975 70.3238 42.5227 31.6445 872.488 176.2 60.1427 23.8761
internal_count=13999 7290 6709 6850 6691 1422 440 805 2262 1116 307 498 1064 159 452 236 5287 462 108 216 1146 873 88 4825 394 4792 563 97 76 64 617 54 72 43 356 52 354 248 221 219 133 563 217 73 346 99 466 331 199 144 4229 844 273 108
is_linear=0
shrinkage=0.05


Tree=12
num_leaves=61
num_cat=0
split_feature=16 5 15 15 17 17 5 3 5 17 16 5 16 13 10 11 17 16 9 17 6 17 16 5 0 11 3 6 8 13 6 5 0 5 9 16 3 16 5 0 5 8 16 8 9 17 5 9 9 10 10 10 11 9 2 17 16 10 5 10
split_gain=3277.19 394.358 118.316 95.3453 83.7238 79.3465 58.7978 41.4767 31.5205 26.2627 24.073 16.9192 11.5759 10.6159 15.3187 12.5485 9.62667 8.71949 10.4234 8.42633 7.49544 7.43992 6.1558 7.1121 10.4788 5.40457 5.05466 5.22713 4.30684 3.87139 3.32728 3.1796 2.88721 2.26359 2.21072 2.1917 3.51274 2.13255 1.90486 1.78907 1.74417 2.36639 1.71731 1.41885 1.41851 1.41553 1.23172 1.18433 0.981357 3.57208 0.934879 1.8061 0.731848 0.399491 0.268973 0.255803 0.374809 0.231588 0.205365 0.179368
threshold=0.12583115446099319 0.43095238095238103 1.0000000180025095e-35 1.0000000180025095e-35 0.37237631956422895 0.29990364894842381 0.5270467836257311 4.5000000000000009 0.62284482758620696 0.35048817523827563 0.20935092244046546 0.032795698924731186 0.013616215071795492 10.500000000000002 24.500000000000004 74.500000000000014 0.49289853102474618 0.052566708168471657 0.19475832665240897 0.12764552156614045 0.2752525252525253 0.22717197701195876 0.32668048385461268 0.48331479421579543 0.047722567287784685 64.500000000000014 2.5000000000000004 0.95833333333333337 112.50000000000001 21.500000000000004 0.65686274509803932 0.32843137254901966 0.0099751243781094536 0.15192307692307697 0.092404493245900179 0.25815130979773154 7.5000000000000009 0.32183124905119948 0.28285714285714292 0.069848755895267539 0.82971014492753636 110.50000000000001 0.15918111917537317 126.50000000000001 0.070970243254957224 0.52633748506888078 0.44636015325670503 0.77299154334038067 0.56077085410820715 21.500000000000004 28.500000000000004 21.500000000000004 36.500000000000007 0.21266601046012815 0.041791417165668664 0.62743540639190776 0.31922407779421563 37.500000000000007 0.35388994307400384 89.500000000000014
decision_type=2 2 2 2 2 2 2 2 2 2 2 2 2 2 2 2 2 2 2 2 2 2 2 2 2 2 2 2 2 2 2 2 2 2 2 2 2 2 2 2 2 2 2 2 2 2 2 2 2 2 2 2 2 2 2 2 2 2 2 2
left_child=1 2 -1 -3 6 11 7 22 9 12 19 13 43 14 -4 -15 29 31 -19 25 -21 -14 23 24 -2 -9 27 30 -25 -7 37 -13 -10 -28 44 36 -12 38 -6 -31 41 -34 45 -5 -8 46 -35 50 59 -50 51 -36 -42 -52 -37 56 -44 -18 -47 -29
right_child=4 3 5 8 26 16 34 10 32 -11 35 17 21 15 -16 -17 57 18 -20 20 -22 -23 -24 28 -26 -27 33 48 -30 39 -32 -33 40 42 47 54 -38 -39 -40 -41 52 -43 55 -45 -46 58 -48 -49 49 -51 53 -53 -54 -55 -56 -57 -58 -59 -60 -61
leaf_value=-0.068892323467288658 -0.06404036799030563 -0.070626757663384207 0.047912381638140274 0.011474056415846479 0.01613188107193483 -0.015256796289796058 0.05171860372856997 0.0071761265112519988 0.017897528439806697 0.067452899268614905 0.017944249994315802 -0.062897340409590247 -0.037338205024685628 -0.044014383204237478 -0.034099921227309336 -0.012557178520407847 0.069664163647101762 -0.021722991701427316 -0.051818627344311252 0.043231515285603477 -0.0031793117924734994 0.022031469657946889 0.042156416664502559 -0.0049233776026832848 -0.011001762972081908 -0.050755689180148701 0.034126840736380358 0.067260732827347222 0.056471720547915327 0.0081837123370145995 3.9852240466128848e-06 -0.039645995973634156 0.017143690269846718 0.05108304666098832 0.070642880967192581 0.054240844733351612 0.058661623918957718 0.064965110207218971 0.055921350939775065 0.052855470537811922 0.037314688600922442 0.051825025467073099 0.062337792604302146 0.044949708813478956 0.014684390212913113 0.046846626492389666 0.014978128267943168 0.032596910246677373 0.068063408005216 0.011549299094997557 0.058907923633855365 0.03987457721861986 0.06086917073188719 0.067589905965921612 0.067763371907879552 0.068321017363339648 0.06717270764338322 0.047577320262987145 0.068667048537643757 0.047621896868459135
leaf_weight=871.93516831099987 11.646105363965033 24.894998505711555 9.3877904564142245 7.3740415275096876 9.0856502950191551 8.0746615231037158 7.1268702745437604 8.5672919601201993 6.3626227825880042 13.62279364466667 9.1439639925956744 133.81830301880836 28.297914266586304 142.99049280583858 14.128077968955038 41.473002642393112 11.156249180436133 42.89752995967865 93.228953421115875 21.221443146467209 14.35272094607353 6.2983086407184592 4.9779832512140265 6.402237191796301 47.113564804196358 7.2576539516448966 6.3333449661731711 41.92151403427124 4.8538611382246017 4.8058979511260969 5.7572292834520331 18.69523860514164 7.4084477126598385 6.818529278039934 8.658821180462839 13.67859737575054 14.559207648038862 7.892009586095809 4.9527211785316458 4.768554225564003 5.3447727113962165 19.382257133722305 135.90004760026932 6.3970575928688049 4.8973501026630402 4.4192058444023123 4.4708100557327271 4.5465917736291876 7.6855047047138196 4.8070300370454788 43.912596240639687 15.333988219499586 59.299605444073677 71.634386897087097 29.114221021533012 491.8995168954134 236.66693364083767 4.6003321409225455 11.152637824416159 4.2902590334415427
leaf_count=4382 49 120 39 30 39 33 33 35 26 65 39 613 117 633 60 181 54 182 418 89 60 26 21 26 194 30 29 206 20 20 25 82 33 31 41 64 65 37 22 20 24 85 666 26 22 21 21 21 38 22 204 70 265 341 136 2468 1183 22 55 20
internal_value=4.17712e-05 -0.0485104 -0.0575582 0.0201404 0.0578332 -0.0388938 0.0367418 0.0182267 0.0343485 0.00634687 0.0367167 -0.0439164 -0.0108643 -0.0329474 -0.00108375 -0.0369796 0.0355326 -0.0517887 -0.0423942 0.0108655 0.0244101 -0.0263534 -0.0107845 -0.0146745 -0.0216898 -0.0192305 0.0653038 0.0532652 0.0213753 0.00973339 0.0347263 -0.0601078 0.052022 0.0664508 0.0595606 0.0565774 0.0433055 0.0435734 0.0308194 0.0312657 0.0543198 0.0425199 0.066671 0.0275968 0.0372928 0.0527157 0.0374808 0.061357 0.0618501 0.0469787 0.0622343 0.0514333 0.0590596 0.0643874 0.063694 0.0670927 0.0654397 0.0638717 0.063132 0.0656522
internal_weight=2919.7 1586.64 1401.96 184.683 1333.05 530.025 348.999 192.889 159.788 61.9901 117.895 496.619 48.3673 207.979 23.5159 184.463 33.4057 288.64 136.126 51.3991 35.5742 34.5962 74.9938 70.0158 58.7597 15.8249 984.053 86.3919 11.2561 17.6491 27.6876 152.514 97.7977 897.661 156.111 66.496 23.7032 21.9304 14.0384 9.57445 91.4351 26.7907 891.328 13.7711 12.0242 26.8612 11.2893 144.086 58.7043 12.4925 139.54 23.9928 64.6444 115.547 42.7928 864.466 372.567 15.7566 15.5718 46.2118
internal_count=13999 7556 6739 817 6443 2357 1560 828 697 264 518 2208 199 913 99 814 149 1295 600 214 149 143 310 289 243 65 4883 409 46 73 123 695 433 4474 732 304 104 98 61 40 407 118 4445 56 55 128 52 677 286 60 656 111 289 545 200 4317 1849 76 76 226
is_linear=0
shrinkage=0.05


Tree=13
num_leaves=60
num_cat=0
split_feature=16 5 15 15 17 17 5 16 5 17 5 15 7 13 16 17 12 13 17 10 7 5 7 17 16 12 16 9 8 5 17 16 12 16 17 2 6 12 7 9 12 10 9 17 16 2 16 7 10 12 6 16 9 6 9 10 16 2 4
split_gain=3037.98 366.989 116.816 88.0916 81.7074 72.8633 55.4039 37.8021 29.1286 21.8184 15.5156 11.2112 10.4571 10.17 9.96232 9.71721 8.97706 8.17915 8.0853 7.58714 7.51344 7.09271 5.69916 5.44573 5.29792 5.40131 5.10503 3.89135 3.83821 3.48301 6.63465 4.87433 6.83724 3.60975 3.01867 2.62859 3.46999 2.41896 2.93928 2.13236 2.0491 1.59165 1.14636 1.05303 1.16913 1.71985 2.90829 1.3261 0.92075 1.90603 0.657824 0.500277 0.418713 0.358838 0.503333 0.231696 0.228671 0.0690896 0.537965
threshold=0.12583115446099319 0.43095238095238103 1.0000000180025095e-35 1.0000000180025095e-35 0.37237631956422895 0.31129327930643785 0.5270467836257311 0.21502373664346927 0.57979626485568769 0.35048817523827563 0.032795698924731186 1.0000000180025095e-35 481.50000000000006 13.500000000000002 0.013616215071795492 0.20414691233037774 130.50000000000003 18.500000000000004 0.49289853102474618 67.500000000000014 512.50000000000011 0.43095238095238103 115.50000000000001 0.22717197701195876 0.29102542394011316 32.500000000000007 0.084937228453786165 0.045413411458333337 110.50000000000001 0.28285714285714292 0.45969906692163059 0.33534907625852101 51.500000000000007 0.1568694380321248 0.29493181232376658 0.03565073716319269 0.2817460317460318 73.500000000000014 1587.5000000000002 0.092404493245900179 230.50000000000003 61.500000000000007 0.77299154334038067 0.52633748506888078 0.15918111917537317 0.0057307060755336621 0.30641737300426264 754.50000000000011 28.500000000000004 61.500000000000007 0.15587044534412958 0.32668048385461268 0.21266601046012815 0.47213622291021679 0.56530911759310232 37.500000000000007 0.021849628936961622 0.029027637344118642 3.5000000000000004
decision_type=2 2 2 2 2 2 2 2 2 2 2 2 2 2 2 2 2 2 2 2 2 2 2 2 2 2 2 2 2 2 2 2 2 2 2 2 2 2 2 2 2 2 2 2 2 2 2 2 2 2 2 2 2 2 2 2 2 2 2
left_child=1 2 -1 -3 6 10 7 11 9 14 13 -2 21 19 41 22 -17 -14 26 -4 -15 -13 -12 -16 25 34 -7 -10 -27 30 31 32 -6 -32 -9 36 -26 56 -39 40 -8 -5 48 44 47 46 -46 -31 49 -41 -47 -37 -50 -35 -55 -20 -29 58 -45
right_child=4 3 5 8 29 18 39 24 27 -11 15 12 17 20 23 16 -18 -19 55 -21 -22 -23 -24 -25 35 28 -28 37 -30 43 33 -33 -34 53 -36 51 -38 38 -40 42 -42 -43 -44 57 45 50 -48 -49 52 -51 -52 -53 -54 54 -56 -57 -58 -59 -60
leaf_value=-0.067634152584801988 -0.072433606735357023 -0.06918739558435355 -0.0049535553609348082 0.010132988209495404 -0.019118553983238057 0.042737276658493306 0.0073454237194007389 -0.030031458939845653 0.0046765813744557494 0.065377950128899048 -0.020545497085563125 -0.021309248059802183 -0.022570831578955682 -0.044781791491932406 -0.03666610892631679 -0.040020566817119588 0.021291482304273142 0.030241273039269025 0.068252771486171468 -0.061195769101176481 -0.019250387085854116 0.026487831953547359 -0.054603657066946115 0.017894837191848947 0.053986563586876229 0.0099232351530857254 -0.014136585357151399 0.0687366590619196 0.048847548802993628 0.060786314991314074 0.014617886994869414 0.069683652211046374 0.049337384342674123 0.065572081066311766 0.023852970008810245 0.051743187812261331 0 0.041600396762643432 0.072195320688251838 0.063283649576232087 0.051890093464956204 0.047091517750515087 0.031326335333959079 0.060834843979884368 0.032304601979314555 0.046006876177297006 0.061257884117837419 0.022058468642028532 0.057238108571537008 0.032689275192368972 0.065921574917163092 0.070814729294887857 0.066049853782995202 0.060532785254148083 0.032926582693579572 0.046145868684154483 0.049878519125174624 0.067241602397967656 0.067259256037008122
leaf_weight=844.44648303091526 5.3544964343309394 24.162908285856247 45.696804761886597 8.4037593305110914 7.751891493797304 6.9447431415319469 4.4112674146890622 4.9225322157144529 4.967659503221511 11.444384127855299 13.607402890920637 46.171626776456833 9.0642020255327207 113.25030449032784 25.941829413175586 19.428544238209728 8.4064856916666013 35.199500039219856 10.827994078397749 6.8584475666284552 40.005406081676483 9.1530617624521238 244.10564093291759 5.35001017153263 9.0083703547716123 8.8918935805559141 8.713917672634123 20.347805947065357 26.052023276686668 5.119763717055319 4.3175128251314154 5.0454645305871955 6.6318428218364716 63.969500511884689 5.2580453604459763 9.7647818028926867 4.6946314424276343 60.608816102147102 9.8751640170812589 12.888810634613039 7.4575753211975098 4.8560477942228308 4.4997175931930533 108.59460735321045 13.66992051899433 7.0897020399570456 31.958177477121353 5.1069101095199585 42.961195707321167 10.65780135989189 145.96255432069302 17.619717314839363 69.691125065088272 7.279219985008238 4.0641185194253922 4.5112700909376136 5.8425483852624884 413.66847382485867 125.09439048171043
leaf_count=4382 25 120 193 34 33 29 20 20 22 56 62 191 37 514 108 86 35 147 54 30 176 38 1120 22 41 38 36 97 116 24 20 24 31 323 22 46 22 268 44 62 35 20 21 555 65 36 160 24 204 49 744 85 341 37 20 22 26 2140 647
internal_value=4.58653e-05 -0.047251 -0.0561286 0.0194588 0.056432 -0.0375097 0.0354768 0.017491 0.0331136 0.00404626 -0.0422056 -0.00262132 0.00115097 -0.0316436 -0.0117077 -0.049787 -0.0213147 0.0192873 0.0366626 -0.0124904 -0.0381667 -0.0132778 -0.0528334 -0.0271512 0.0420056 0.0298215 0.0108813 0.0490583 0.0391421 0.0639619 0.0545596 0.0276801 0.0122216 0.0610124 -0.00175366 0.0551606 0.035983 0.05128 0.0460539 0.0579526 0.0359517 0.0242935 0.0597461 0.0650373 0.0613627 0.0622954 0.0527826 0.0423318 0.0606247 0.0498441 0.0650624 0.0644091 0.0627875 0.0635829 0.0514531 0.062416 0.0649257 0.0662057 0.0643225
internal_weight=2847.65 1548.6 1366.8 181.801 1299.05 522.357 343.722 191.155 157.638 55.996 491.359 104.943 99.5884 205.811 44.5516 285.548 27.835 44.2637 30.9979 52.5553 153.256 55.3247 257.713 31.2918 86.212 45.1245 15.6587 101.642 34.9439 955.324 99.0596 19.4292 14.3837 79.6304 10.1806 41.0875 13.703 96.6743 70.484 152.567 11.8688 13.2598 140.699 856.264 208.907 198.68 45.6281 10.2267 136.199 23.5466 153.052 27.3845 112.652 75.3128 11.3433 15.3393 26.1904 647.357 233.689
internal_count=13999 7556 6739 817 6443 2357 1560 828 697 240 2216 438 413 913 184 1303 121 184 141 223 690 229 1182 130 390 196 65 457 154 4883 488 88 64 400 42 194 63 435 312 732 55 54 677 4395 1053 1005 225 48 656 111 780 131 545 380 57 76 123 3342 1202
is_linear=0
shrinkage=0.05


Tree=14
num_leaves=61
num_cat=0
split_feature=16 5 15 17 17 5 15 16 16 5 3 15 8 17 3 6 3 11 9 16 10 5 8 9 5 10 10 9 5 12 16 5 17 16 16 12 0 16 16 17 17 10 8 11 9 5 0 16 17 3 0 12 16 9 12 16 17 0 8 3
split_gain=2819.5 294.301 130.511 125.235 74.7494 63.821 45.4065 40.6887 17.1632 16.0991 15.0616 13.5786 11.085 9.45399 9.42828 12.6514 9.21277 10.0072 8.09211 7.30893 6.65708 6.24539 6.14841 5.72299 5.24782 4.96168 5.06568 4.68325 6.11983 4.66153 4.42064 4.95144 6.14655 4.07168 3.35793 2.9908 2.79069 2.41623 2.18745 1.95901 1.91027 1.53982 1.53013 2.34588 1.53013 1.35024 2.76255 2.45517 2.42439 1.60271 2.36816 1.06605 2.02957 0.612421 2.711 0.561082 1.62083 0.476096 0.382249 0.222851
threshold=0.10695554679994518 0.58957219251336912 1.0000000180025095e-35 0.31888447377762213 0.29990364894842381 0.5270467836257311 1.0000000180025095e-35 0.21502373664346927 1.0000000180025095e-35 0.27097902097902099 4.5000000000000009 1.0000000180025095e-35 89.500000000000014 0.44060109328268598 2.5000000000000004 0.95833333333333337 5.5000000000000009 46.500000000000007 0.29027170041721795 0.027564810115680943 18.500000000000004 0.48331479421579543 104.50000000000001 0.19475832665240897 0.15504807692307696 19.500000000000004 33.500000000000007 0.090345068406972345 0.82971014492753636 34.500000000000007 0.21502373664346927 0.28285714285714292 0.40465879814550021 0.083213078890074635 0.13085543062082358 252.50000000000003 0.03778684344722081 0.30641737300426264 0.090663305615627993 0.34344348368646088 0.47853219979094036 130.50000000000003 157.50000000000003 96.500000000000014 0.23336686787391017 0.8047619047619049 0.10729043683589139 0.23476014220486749 0.25747728610115456 1.5000000000000002 0.03778684344722081 74.500000000000014 0.2712894269293375 0.56077085410820715 28.500000000000004 0.30985380767221021 0.40465879814550021 0.07985507246376812 141.50000000000003 3.5000000000000004
decision_type=2 2 2 2 2 2 2 2 2 2 2 2 2 2 2 2 2 2 2 2 2 2 2 2 2 2 2 2 2 2 2 2 2 2 2 2 2 2 2 2 2 2 2 2 2 2 2 2 2 2 2 2 2 2 2 2 2 2 2 2
left_child=1 2 -1 5 8 7 -3 11 9 12 25 -2 -4 33 15 20 22 -18 -11 58 40 29 -13 -21 -16 -9 -27 28 -8 -22 31 32 -26 -6 36 -30 -7 -23 42 -33 -5 53 43 -29 -44 46 48 -48 -36 50 -47 52 -12 -17 -55 56 -32 -53 -10 -15
right_child=3 6 4 14 13 34 27 10 19 18 51 16 -14 59 24 41 17 -19 -20 23 21 37 -24 -25 30 26 -28 38 35 -31 55 39 -34 -35 45 -37 -38 -39 -40 -41 -42 -43 44 -45 -46 49 47 -49 -50 -51 -52 57 -54 54 -56 -57 -58 -59 -60 -61
leaf_value=-0.066485115740795381 -0.068583720776925206 -0.068040956465573552 -0.016349389162183616 0.020352601046781577 0.032987855009434845 0.054578597642443119 -0.022771899451560957 0.044967943424177967 -0.067939888039688867 -0.0071763227857108208 0.025800023504108035 -0.037864213063303204 -0.040968442560435206 0.046141221132379978 0.018692484964576268 0.065236809850273497 0.056264454041831946 -0.00047984500726930404 0.062340308617953234 -0.032605517173606192 0.0092406415708097545 0.053209073301019927 -0.0060746262079585962 -0.05093430025287974 -0.0091315950995542756 -0.047900464076033523 0.011314795537817616 0.065703920762676865 0.022523507779658957 -0.058690194538041265 0.048895561202918422 0.027083721002539474 0.048272990107375811 -0.017082423024522776 0.042612435450582159 0.075090810593419599 0.0056001235668705907 0.0032314501736969373 0.021365581073668295 0.060802233224466207 0.062584976740622175 0.028903492009415662 0.02355473509641532 0.032997715794205219 0.05846922971923451 0.06990330644817673 0.027415567711202828 0.067690289850722604 0.0013174835804873131 0.0650795604741876 0.033173841106854 0.04749703899407217 0.057496845785205267 0.066220823398269207 0.014961146427984568 0.065533041502658249 0.063639642340662453 0.071551647370208318 -0.053155448163033761 0.067427508881848758
leaf_weight=826.32527221739292 9.1962835788726789 9.2258731126785261 64.658558160066605 4.6906191706657401 8.3855856508016569 5.0893752127885801 4.8396675437688836 4.9772103279829052 44.509192690253258 14.993462026119234 8.5857191234827059 23.696710124611855 164.51651215553284 4.5806680768728283 7.065514236688613 44.190166801214218 9.767462342977522 35.748271465301514 5.6514384895563117 70.872153997421265 4.6572807878255862 5.2126924544572812 43.635184705257416 119.07167121767998 6.3373724520206478 5.8934126943349829 8.7949133813381177 41.989193052053452 7.8482612073421478 5.0966123789548874 27.910458579659462 5.3585875928401938 15.983342811465262 7.5651747435331336 15.638208210468294 4.5234853774309158 7.2731997668743134 4.881113663315773 5.4428506195545188 84.980591207742691 8.4777625650167447 4.6796900629997245 7.6478128135204297 7.4441696107387534 6.6197816878557205 7.5307937413454082 5.537906318902972 19.12361054122448 4.9266883730888358 49.497588992118835 13.549845516681669 5.4126712828874615 16.793976441025734 8.0738265961408597 4.2876590788364402 634.20056416094303 133.99358297884464 13.279234513640402 11.610065817832945 13.08625318109989
leaf_count=4432 46 46 278 20 35 23 21 21 217 63 38 99 751 23 33 229 40 149 24 312 20 24 182 561 26 24 36 197 34 21 137 25 78 31 70 20 31 22 24 434 42 22 34 34 30 36 26 98 23 247 63 24 83 42 20 3385 707 63 56 67
internal_value=4.98279e-05 -0.0480799 -0.0540595 0.0528135 -0.0346502 0.0251929 0.0366568 0.00642963 -0.0395474 -0.0302401 0.0387933 -0.0104492 -0.0340545 0.0373415 0.0613901 0.0460162 -0.00561086 0.0116843 0.0118213 -0.0489603 0.0207479 0.00214309 -0.0173763 -0.0441425 0.0629616 0.00211826 -0.0122693 0.047966 0.0238986 -0.0259826 0.0632981 0.0535965 0.0317834 0.00897039 0.0523254 0.0425926 0.0264407 0.0298004 0.0538415 0.0588896 0.0481853 0.0595034 0.0565001 0.0609562 0.0403963 0.0550203 0.0473914 0.0589955 0.0330157 0.0597642 0.0467991 0.0550033 0.0471137 0.0618918 0.0491051 0.0646579 0.0611605 0.065142 -0.0650702 0.0624806
internal_weight=2775.43 1451.41 1355.83 1324.03 529.501 313.948 95.5811 185.781 495.883 249.82 63.7371 122.044 229.175 33.6177 1010.08 94.2474 112.848 45.5157 20.6449 246.063 33.0161 19.8477 67.3319 189.944 915.83 19.6655 14.6883 86.3552 17.2114 9.75389 908.764 112.66 22.3207 15.9508 128.167 12.3717 12.3626 10.0938 69.1438 90.3392 13.1684 61.2313 63.701 49.4334 14.2676 115.805 45.2264 24.6615 20.5649 70.5782 21.0806 44.0716 25.3797 56.5517 12.3615 796.105 161.904 18.6919 56.1193 17.6669
internal_count=13999 7290 6850 6709 2418 1422 440 805 2262 1116 289 516 1029 156 5287 462 470 189 87 1146 149 87 281 873 4825 81 60 394 75 41 4792 563 104 66 617 54 54 46 319 459 62 313 295 231 64 563 217 124 93 346 99 208 121 291 62 4229 844 87 273 90
is_linear=0
shrinkage=0.05


Tree=15
num_leaves=55
num_cat=0
split_feature=16 5 15 15 16 1 15 5 5 1 1 13 10 8 16 4 7 16 16 0 5 5 10 10 1 11 2 7 11 1 0 1 0 1 10 10 16 5 1 8 5 8 9 1 11 7 0 11 5 1 10 7 0 0
split_gain=2618.23 319.836 114.101 75.6464 71.1334 44.5948 31.7681 28.0912 24.7662 15.206 15.1672 11.9019 22.1734 9.61662 9.38174 9.51694 7.90726 11.8074 6.60596 6.55475 6.47686 5.99985 5.5373 4.56712 5.86307 4.52187 3.50772 5.61236 4.38785 3.09757 2.99179 2.93882 2.80519 2.80499 2.41948 5.88793 2.26035 2.16769 3.73491 2.16373 1.75043 2.26377 1.44087 3.51895 1.30032 0.982884 0.887631 0.80883 0.65596 0.508131 0.34857 0.177713 0.0780988 0.02374
threshold=0.12583115446099319 0.43095238095238103 1.0000000180025095e-35 1.0000000180025095e-35 0.21502373664346927 0.22048611111111113 1.0000000180025095e-35 0.47722567287784684 0.62284482758620696 0.26393188854489169 0.16794871794871799 10.500000000000002 24.500000000000004 99.500000000000014 0.3382194890255093 2.5000000000000004 507.50000000000006 0.097674325764670625 0.013616215071795492 0.043399780254277202 0.067816091954023008 0.77097902097902116 72.500000000000014 27.500000000000004 0.27681992337164757 56.500000000000007 0.026246899972444202 115.50000000000001 47.500000000000007 0.13680926916221037 0.17165178571428574 0.29289215686274517 0.010666742519057915 0.27097902097902099 121.50000000000001 150.50000000000003 0.15331774055660657 0.23669467787114848 0.22967032967032971 135.50000000000003 0.82971014492753636 110.50000000000001 0.23907741251325559 0.060915275200989494 58.500000000000007 268.50000000000006 0.050157232704402525 36.500000000000007 0.45080645161290328 0.23669467787114848 13.500000000000002 252.50000000000003 0.030379941547454242 0.040885978964964827
decision_type=2 2 2 2 2 2 2 2 2 2 2 2 2 2 2 2 2 2 2 2 2 2 2 2 2 2 2 2 2 2 2 2 2 2 2 2 2 2 2 2 2 2 2 2 2 2 2 2 2 2 2 2 2 2
left_child=1 2 -1 -3 6 11 -2 10 9 18 13 12 50 29 15 21 20 -18 44 -15 -13 26 -20 45 -25 -14 28 -28 -6 -8 34 33 -10 -12 36 -36 -9 38 -17 -33 41 -34 43 -23 -5 -7 52 -42 49 -39 -4 -50 -16 -54
right_child=4 3 5 8 14 23 7 30 32 -11 31 16 25 19 46 37 17 -19 22 -21 -22 42 -24 24 -26 -27 27 -29 -30 -31 -32 39 40 -35 35 -37 -38 48 -40 -41 47 -43 -44 -45 -46 -47 -48 -49 51 -51 -52 -53 53 -55
leaf_value=-0.065419544981882932 -0.075537451558071039 -0.066671954839887568 0.059901528164063834 0.0030889082630175392 0.054839340395829418 0.039926595464465177 -0.016407016977699255 0.044296618796247161 0.016244171156746545 0.064548795684929106 0.033290560488936916 -0.038388547830963515 -0.065105133750489097 -0.035479693587400017 0.064839855519636128 0 -0.035937359506022046 0.0072358066704839965 -0.026803111024433265 0.017461873985643184 -0.053980999112983014 0.01911180851691505 0.017350760090201034 -0.020781507575802806 0.046776474999858569 -0.01406714824696048 0.0099384887354199078 0.049788396841910137 0.011162947360498379 -0.066731574585881873 0.014226568505813879 0.060361199646085675 0.012725496748498634 -0.002951068193892372 -0.0057607422527913158 0.060738187431619919 0.063372043898907021 0.050146945016940329 0.059474358488194927 0.021754978129457814 0.031979093510049204 0.047102028670592148 0.067325377676060325 0.065919475736032018 0.036357592076228872 0.078459184001362953 0.063910304421835915 0.056589087052968556 0.049262341248084318 0.061111459822000648 0.035665872231328576 0.065180794342742238 0.037509688977060897 0.051665599566946212
